{"learner":{"attributes":{"best_iteration":"354","best_score":"0.04493298342804272","scikit_learn":"{\"_estimator_type\": \"regressor\"}"},"feature_names":[],"feature_types":[],"gradient_booster":{"model":{"cats":{"enc":[],"feature_segments":[],"sorted_idx":[]},"gbtree_model_param":{"num_parallel_tree":"1","num_trees":"395"},"iteration_indptr":[0,1,2,3,4,5,6,7,8,9,10,11,12,13,14,15,16,17,18,19,20,21,22,23,24,25,26,27,28,29,30,31,32,33,34,35,36,37,38,39,40,41,42,43,44,45,46,47,48,49,50,51,52,53,54,55,56,57,58,59,60,61,62,63,64,65,66,67,68,69,70,71,72,73,74,75,76,77,78,79,80,81,82,83,84,85,86,87,88,89,90,91,92,93,94,95,96,97,98,99,100,101,102,103,104,105,106,107,108,109,110,111,112,113,114,115,116,117,118,119,120,121,122,123,124,125,126,127,128,129,130,131,132,133,134,135,136,137,138,139,140,141,142,143,144,145,146,147,148,149,150,151,152,153,154,155,156,157,158,159,160,161,162,163,164,165,166,167,168,169,170,171,172,173,174,175,176,177,178,179,180,181,182,183,184,185,186,187,188,189,190,191,192,193,194,195,196,197,198,199,200,201,202,203,204,205,206,207,208,209,210,211,212,213,214,215,216,217,218,219,220,221,222,223,224,225,226,227,228,229,230,231,232,233,234,235,236,237,238,239,240,241,242,243,244,245,246,247,248,249,250,251,252,253,254,255,256,257,258,259,260,261,262,263,264,265,266,267,268,269,270,271,272,273,274,275,276,277,278,279,280,281,282,283,284,285,286,287,288,289,290,291,292,293,294,295,296,297,298,299,300,301,302,303,304,305,306,307,308,309,310,311,312,313,314,315,316,317,318,319,320,321,322,323,324,325,326,327,328,329,330,331,332,333,334,335,336,337,338,339,340,341,342,343,344,345,346,347,348,349,350,351,352,353,354,355,356,357,358,359,360,361,362,363,364,365,366,367,368,369,370,371,372,373,374,375,376,377,378,379,380,381,382,383,384,385,386,387,388,389,390,391,392,393,394,395],"tree_info":[0,0,0,0,0,0,0,0,0,0,0,0,0,0,0,0,0,0,0,0,0,0,0,0,0,0,0,0,0,0,0,0,0,0,0,0,0,0,0,0,0,0,0,0,0,0,0,0,0,0,0,0,0,0,0,0,0,0,0,0,0,0,0,0,0,0,0,0,0,0,0,0,0,0,0,0,0,0,0,0,0,0,0,0,0,0,0,0,0,0,0,0,0,0,0,0,0,0,0,0,0,0,0,0,0,0,0,0,0,0,0,0,0,0,0,0,0,0,0,0,0,0,0,0,0,0,0,0,0,0,0,0,0,0,0,0,0,0,0,0,0,0,0,0,0,0,0,0,0,0,0,0,0,0,0,0,0,0,0,0,0,0,0,0,0,0,0,0,0,0,0,0,0,0,0,0,0,0,0,0,0,0,0,0,0,0,0,0,0,0,0,0,0,0,0,0,0,0,0,0,0,0,0,0,0,0,0,0,0,0,0,0,0,0,0,0,0,0,0,0,0,0,0,0,0,0,0,0,0,0,0,0,0,0,0,0,0,0,0,0,0,0,0,0,0,0,0,0,0,0,0,0,0,0,0,0,0,0,0,0,0,0,0,0,0,0,0,0,0,0,0,0,0,0,0,0,0,0,0,0,0,0,0,0,0,0,0,0,0,0,0,0,0,0,0,0,0,0,0,0,0,0,0,0,0,0,0,0,0,0,0,0,0,0,0,0,0,0,0,0,0,0,0,0,0,0,0,0,0,0,0,0,0,0,0,0,0,0,0,0,0,0,0,0,0,0,0,0,0,0,0,0,0,0,0,0,0,0,0,0,0,0,0,0,0,0,0,0,0,0,0,0,0,0,0,0,0,0,0,0,0,0,0,0,0,0,0,0,0,0,0,0,0,0,0],"trees":[{"base_weights":[6.2238625E-3,-7.877781E-2,1.6464089E-1,-2.122138E-1,-1.5074297E-2,6.513279E-2,2.2893845E-1,-3.6816618E-3,-6.073489E-3,2.0912489E-2,-8.919265E-2,2.2358917E-2,2.4730912E-3,4.8281085E-3,2.778276E-3,-3.590729E-3,1.29339E-3,-2.1753882E-3,-2.5703118E-4,1.1766297E-3,-4.336134E-5,-1.688678E-2,8.796365E-4,5.147954E-4,-6.473824E-4],"categories":[],"categories_nodes":[],"categories_segments":[],"categories_sizes":[],"default_left":[0,0,0,0,0,0,0,0,0,0,0,0,0,0,0,0,0,0,0,0,0,0,0,0,0],"id":0,"left_children":[1,3,5,7,9,11,13,-1,-1,15,17,19,-1,-1,-1,21,-1,-1,-1,-1,-1,23,-1,-1,-1],"loss_changes":[1.097716E1,4.454955E0,1.7693148E0,3.499713E-1,9.701554E-1,2.549192E-1,1.1631966E-1,0E0,0E0,2.6781863E-1,1.5370226E-1,7.014875E-2,0E0,0E0,0E0,9.0392366E-2,0E0,0E0,0E0,0E0,0E0,8.067702E-2,0E0,0E0,0E0],"parents":[2147483647,0,0,1,1,2,2,3,3,4,4,5,5,6,6,9,9,10,10,11,11,15,15,21,21],"right_children":[2,4,6,8,10,12,14,-1,-1,16,18,20,-1,-1,-1,22,-1,-1,-1,-1,-1,24,-1,-1,-1],"split_conditions":[1.4049832E0,-5.710254E-1,2.8114645E-2,1.7249656E0,-6.3915215E-2,-4.9313715E-1,2.3423158E-1,-3.6816618E-3,-6.073489E-3,9.627731E-1,1.5389675E0,1.128672E0,2.4730912E-3,4.8281085E-3,2.778276E-3,1.5389675E0,1.29339E-3,-2.1753882E-3,-2.5703118E-4,1.1766297E-3,-4.336134E-5,-9.583556E-1,8.796365E-4,5.147954E-4,-6.473824E-4],"split_indices":[6,1,1,0,0,1,0,0,0,1,5,0,0,0,0,5,0,0,0,0,0,0,0,0,0],"split_type":[0,0,0,0,0,0,0,0,0,0,0,0,0,0,0,0,0,0,0,0,0,0,0,0,0],"sum_hessian":[8.14E2,5.29E2,2.85E2,1.7E2,3.59E2,1.13E2,1.72E2,1.31E2,3.9E1,2.4E2,1.19E2,6.7E1,4.6E1,1.5E2,2.2E1,1.51E2,8.9E1,9.3E1,2.6E1,3E1,3.7E1,1.21E2,3E1,2.9E1,9.2E1],"tree_param":{"num_deleted":"0","num_feature":"41","num_nodes":"25","size_leaf_vector":"1"}},{"base_weights":[-1.4436118E-3,-7.96684E-2,1.5312134E-1,-2.0104702E-1,-2.0855578E-2,2.0319035E-2,2.0582531E-1,-5.156166E-3,-1.6263698E-1,5.1033523E-2,-5.2742925E-2,1.7309274E-3,-2.473268E-4,4.952858E-3,3.0766258E-3,-3.7311343E-3,-2.191536E-3,-3.0994765E-4,1.2297351E-3,-8.6425506E-2,-2.2962479E-2,-2.0872734E-3,-4.6285914E-4,-7.724835E-4,6.41159E-4],"categories":[],"categories_nodes":[],"categories_segments":[],"categories_sizes":[],"default_left":[0,0,0,0,0,0,0,0,0,0,0,0,0,0,0,0,0,0,0,0,0,0,0,0,0],"id":1,"left_children":[1,3,5,7,9,11,13,-1,15,17,19,-1,-1,-1,-1,-1,-1,-1,-1,21,23,-1,-1,-1,-1],"loss_changes":[9.514318E0,3.6998756E0,1.8062496E0,2.8978777E-1,8.118611E-1,1.7763118E-1,3.323717E-1,0E0,7.474494E-2,8.200207E-2,2.2764158E-1,0E0,0E0,0E0,0E0,0E0,0E0,0E0,0E0,1.03529155E-1,1.1602545E-1,0E0,0E0,0E0,0E0],"parents":[2147483647,0,0,1,1,2,2,3,3,4,4,5,5,6,6,8,8,9,9,10,10,19,19,20,20],"right_children":[2,4,6,8,10,12,14,-1,16,18,20,-1,-1,-1,-1,-1,-1,-1,-1,22,24,-1,-1,-1,-1],"split_conditions":[1.4049832E0,-5.230942E-1,-4.9313715E-1,-1.2959847E0,-6.602088E-1,8.3052516E-1,-3.62062E-1,-5.156166E-3,1.5389675E0,2.1983945E-1,1.00011446E-1,1.7309274E-3,-2.473268E-4,4.952858E-3,3.0766258E-3,-3.7311343E-3,-2.191536E-3,-3.0994765E-4,1.2297351E-3,1.5389675E0,1.5389675E0,-2.0872734E-3,-4.6285914E-4,-7.724835E-4,6.41159E-4],"split_indices":[6,1,1,1,0,0,0,0,5,1,1,0,0,0,0,0,0,0,0,5,5,0,0,0,0],"split_type":[0,0,0,0,0,0,0,0,0,0,0,0,0,0,0,0,0,0,0,0,0,0,0,0,0],"sum_hessian":[7.88E2,5.24E2,2.64E2,1.7E2,3.54E2,7.6E1,1.88E2,6.7E1,1.03E2,1.07E2,2.47E2,2.7E1,4.9E1,1.03E2,8.5E1,6.9E1,3.4E1,1.2E1,9.5E1,1.13E2,1.34E2,8.6E1,2.7E1,1.07E2,2.7E1],"tree_param":{"num_deleted":"0","num_feature":"41","num_nodes":"25","size_leaf_vector":"1"}},{"base_weights":[7.3279045E-4,-7.824632E-2,1.552222E-1,-1.7612897E-1,-1.8545592E-3,2.0349354E-1,2.7482316E-2,-1.4649753E-1,-5.5978484E-3,-2.8095638E-2,1.608688E-3,3.3374103E-3,5.004848E-3,-2.594185E-4,1.5584152E-3,-3.685167E-3,-2.3346879E-3,-5.031585E-3,-1.2837986E-3,6.607973E-4,-3.6306633E-4],"categories":[],"categories_nodes":[],"categories_segments":[],"categories_sizes":[],"default_left":[0,0,0,0,0,0,0,0,0,0,0,0,0,0,0,0,0,0,0,0,0],"id":2,"left_children":[1,3,5,7,9,11,13,15,-1,17,-1,-1,-1,-1,-1,-1,-1,19,-1,-1,-1],"loss_changes":[9.580341E0,3.8406656E0,1.5977488E0,6.1259794E-1,6.1980826E-1,2.51225E-1,1.6240208E-1,1.4310241E-1,0E0,1.723157E-1,0E0,0E0,0E0,0E0,0E0,0E0,0E0,6.642158E-2,0E0,0E0,0E0],"parents":[2147483647,0,0,1,1,2,2,3,3,4,4,5,5,6,6,7,7,9,9,17,17],"right_children":[2,4,6,8,10,12,14,16,-1,18,-1,-1,-1,-1,-1,-1,-1,20,-1,-1,-1],"split_conditions":[1.4049832E0,-2.1154135E-1,5.323784E-1,1.7249656E0,9.627731E-1,7.1113425E-1,-7.2081035E-1,-9.185266E-1,-5.5978484E-3,-6.3915215E-2,1.608688E-3,3.3374103E-3,5.004848E-3,-2.594185E-4,1.5584152E-3,-3.685167E-3,-2.3346879E-3,-9.583556E-1,-1.2837986E-3,6.607973E-4,-3.6306633E-4],"split_indices":[6,1,0,0,1,1,1,1,0,0,0,0,0,0,0,0,0,0,0,0,0],"split_type":[0,0,0,0,0,0,0,0,0,0,0,0,0,0,0,0,0,0,0,0,0],"sum_hessian":[7.84E2,5.18E2,2.66E2,2.26E2,2.92E2,1.92E2,7.4E1,1.77E2,4.9E1,2.23E2,6.9E1,1.09E2,8.3E1,3.9E1,3.5E1,7.6E1,1.01E2,1.39E2,8.4E1,3.2E1,1.07E2],"tree_param":{"num_deleted":"0","num_feature":"41","num_nodes":"21","size_leaf_vector":"1"}},{"base_weights":[4.0797514E-4,-7.684974E-2,1.5305367E-1,-1.6316307E-1,-0E0,2.019436E-1,2.5573688E-2,-1.2564535E-1,-4.9713105E-3,-2.7673312E-2,5.8697935E-2,2.8265344E-3,4.831871E-3,-3.6108357E-4,1.5057346E-3,-1.418779E-1,-1.2718539E-3,-4.3369964E-4,-1.2683492E-3,7.458232E-4,2.2054634E-3,-2.1178322E-3,-3.4561371E-3,-3.1975884E-4,9.022286E-4],"categories":[],"categories_nodes":[],"categories_segments":[],"categories_sizes":[],"default_left":[0,0,0,0,0,0,0,0,0,0,0,0,0,0,0,0,0,0,0,0,0,0,0,0,0],"id":3,"left_children":[1,3,5,7,9,11,13,15,-1,17,19,-1,-1,-1,-1,21,-1,23,-1,-1,-1,-1,-1,-1,-1],"loss_changes":[9.60202E0,3.5523672E0,1.6658888E0,7.371249E-1,4.6023518E-1,3.9945412E-1,1.769281E-1,1.4079952E-1,0E0,1.7848481E-1,7.218093E-2,0E0,0E0,0E0,0E0,1.0149002E-1,0E0,7.512077E-2,0E0,0E0,0E0,0E0,0E0,0E0,0E0],"parents":[2147483647,0,0,1,1,2,2,3,3,4,4,5,5,6,6,7,7,9,9,10,10,15,15,17,17],"right_children":[2,4,6,8,10,12,14,16,-1,18,20,-1,-1,-1,-1,22,-1,24,-1,-1,-1,-1,-1,-1,-1],"split_conditions":[1.4049832E0,-8.5721955E-2,5.323784E-1,1.4268187E0,8.9686763E-1,3.4565884E-1,-7.5675875E-1,1.5389675E0,-4.9713105E-3,-6.3915215E-2,1.4840249E0,2.8265344E-3,4.831871E-3,-3.6108357E-4,1.5057346E-3,5.323784E-1,-1.2718539E-3,1.5389675E0,-1.2683492E-3,7.458232E-4,2.2054634E-3,-2.1178322E-3,-3.4561371E-3,-3.1975884E-4,9.022286E-4],"split_indices":[6,1,0,0,1,1,1,5,0,0,1,0,0,0,0,0,0,5,0,0,0,0,0,0,0],"split_type":[0,0,0,0,0,0,0,0,0,0,0,0,0,0,0,0,0,0,0,0,0,0,0,0,0],"sum_hessian":[8.13E2,5.39E2,2.74E2,2.53E2,2.86E2,1.97E2,7.7E1,1.77E2,7.6E1,1.96E2,9E1,7.9E1,1.18E2,3.9E1,3.8E1,1.38E2,3.9E1,1.14E2,8.2E1,6.6E1,2.4E1,6.6E1,7.2E1,8.8E1,2.6E1],"tree_param":{"num_deleted":"0","num_feature":"41","num_nodes":"25","size_leaf_vector":"1"}},{"base_weights":[-2.5542456E-4,-7.6654084E-2,1.4266704E-1,-1.2088295E-2,-1.898635E-1,1.9949868E-1,1.8389285E-2,-4.9256284E-2,3.4385838E-2,-4.6828813E-3,-2.5942067E-3,2.2974012E-3,4.4644685E-3,-2.5721575E-4,1.6172768E-3,-6.811564E-2,2.120148E-4,1.5694434E-2,1.636511E-3,-5.058347E-4,-1.7094319E-3,-0E0,1.2715481E-3],"categories":[],"categories_nodes":[],"categories_segments":[],"categories_sizes":[],"default_left":[0,0,0,0,0,0,0,0,0,0,0,0,0,0,0,0,0,0,0,0,0,0,0],"id":4,"left_children":[1,3,5,7,9,11,13,15,17,-1,-1,-1,-1,-1,-1,19,-1,21,-1,-1,-1,-1,-1],"loss_changes":[8.603259E0,3.727298E0,1.8952193E0,5.710689E-1,4.2539024E-1,3.0737734E-1,1.8180987E-1,2.1936631E-1,1.0936341E-1,0E0,0E0,0E0,0E0,0E0,0E0,8.50656E-2,0E0,7.86249E-2,0E0,0E0,0E0,0E0,0E0],"parents":[2147483647,0,0,1,1,2,2,3,3,4,4,5,5,6,6,7,7,8,8,15,15,17,17],"right_children":[2,4,6,8,10,12,14,16,18,-1,-1,-1,-1,-1,-1,20,-1,22,-1,-1,-1,-1,-1],"split_conditions":[1.4049832E0,5.323784E-1,5.323784E-1,5.254009E-1,-8.885696E-1,2.8114645E-2,-6.4292216E-1,1.5389675E0,1.3162657E0,-4.6828813E-3,-2.5942067E-3,2.2974012E-3,4.4644685E-3,-2.5721575E-4,1.6172768E-3,-3.62062E-1,2.120148E-4,1.5389675E0,1.636511E-3,-5.058347E-4,-1.7094319E-3,-0E0,1.2715481E-3],"split_indices":[6,0,0,1,1,1,1,5,1,0,0,0,0,0,0,0,0,5,0,0,0,0,0],"split_type":[0,0,0,0,0,0,0,0,0,0,0,0,0,0,0,0,0,0,0,0,0,0,0],"sum_hessian":[7.89E2,5.15E2,2.74E2,3.29E2,1.86E2,1.87E2,8.7E1,1.85E2,1.44E2,1.06E2,8E1,4.2E1,1.45E2,5.6E1,3.1E1,1.43E2,4.2E1,1.06E2,3.8E1,4.4E1,9.9E1,8E1,2.6E1],"tree_param":{"num_deleted":"0","num_feature":"41","num_nodes":"23","size_leaf_vector":"1"}},{"base_weights":[5.680076E-3,-6.673672E-2,1.4411584E-1,-1.1470986E-2,-1.740548E-1,2.0110762E-1,4.1391373E-2,3.318986E-2,-5.491269E-2,-1.5133347E-1,-5.179897E-3,5.2699745E-3,3.5394463E-3,2.006166E-3,3.973072E-3,1.3824445E-3,6.9074547E-3,-1.5563109E-3,1.379478E-4,-3.4535371E-3,-1.8659981E-3,-4.2172827E-4,1.1810374E-3,-1.313901E-4,1.1571188E-3],"categories":[],"categories_nodes":[],"categories_segments":[],"categories_sizes":[],"default_left":[0,0,0,0,0,0,0,0,0,0,0,0,0,0,0,0,0,0,0,0,0,0,0,0,0],"id":5,"left_children":[1,3,5,7,9,11,13,15,17,19,-1,-1,-1,-1,21,-1,23,-1,-1,-1,-1,-1,-1,-1,-1],"loss_changes":[8.074597E0,3.0915806E0,1.5770779E0,6.8114424E-1,2.6578712E-1,1.8677664E-1,2.0062484E-1,1.4600897E-1,2.6473302E-1,1.247375E-1,0E0,0E0,0E0,0E0,9.3632445E-2,0E0,7.85566E-2,0E0,0E0,0E0,0E0,0E0,0E0,0E0,0E0],"parents":[2147483647,0,0,1,1,2,2,3,3,4,4,5,5,6,6,7,7,8,8,9,9,14,14,16,16],"right_children":[2,4,6,8,10,12,14,16,18,20,-1,-1,-1,-1,22,-1,24,-1,-1,-1,-1,-1,-1,-1,-1],"split_conditions":[1.4049832E0,5.323784E-1,2.3423158E-1,-3.62062E-1,1.7249656E0,-9.583556E-1,8.3052516E-1,-9.583556E-1,1.5389675E0,1.5389675E0,-5.179897E-3,5.2699745E-3,3.5394463E-3,2.006166E-3,1.5389675E0,1.3824445E-3,1.5389675E0,-1.5563109E-3,1.379478E-4,-3.4535371E-3,-1.8659981E-3,-4.2172827E-4,1.1810374E-3,-1.313901E-4,1.1571188E-3],"split_indices":[6,0,0,0,0,0,0,0,5,5,0,0,0,0,5,0,5,0,0,0,0,0,0,0,0],"split_type":[0,0,0,0,0,0,0,0,0,0,0,0,0,0,0,0,0,0,0,0,0,0,0,0,0],"sum_hessian":[8.04E2,5.27E2,2.77E2,3.49E2,1.78E2,1.77E2,1E2,1.7E2,1.79E2,1.42E2,3.6E1,4.8E1,1.29E2,3.7E1,6.3E1,6.9E1,1.01E2,1.33E2,4.6E1,1.02E2,4E1,4.1E1,2.2E1,7.7E1,2.4E1],"tree_param":{"num_deleted":"0","num_feature":"41","num_nodes":"25","size_leaf_vector":"1"}},{"base_weights":[8.842442E-3,-6.679908E-2,1.4396983E-1,-1.4454839E-1,1.1747244E-2,5.5532485E-2,2.0254432E-1,-2.1063642E-1,-1.0219931E-1,4.6331204E-2,-7.081525E-4,2.4344625E-3,2.1141379E-3,4.6098917E-3,3.1144698E-3,-3.5279708E-3,-5.1840222E-3,-6.69088E-2,-2.692623E-3,1.4920142E-3,4.2212717E-4,1.2208465E-3,-3.7614684E-4,-1.7292883E-3,-0E0],"categories":[],"categories_nodes":[],"categories_segments":[],"categories_sizes":[],"default_left":[0,0,0,0,0,0,0,0,0,0,0,0,0,0,0,0,0,0,0,0,0,0,0,0,0],"id":6,"left_children":[1,3,5,7,9,11,13,15,17,19,-1,21,-1,-1,-1,-1,-1,23,-1,-1,-1,-1,-1,-1,-1],"loss_changes":[8.334492E0,3.2062042E0,1.4702816E0,6.783633E-1,4.2219973E-1,2.9328972E-1,1.5560246E-1,8.7460995E-2,1.4685762E-1,8.9735955E-2,0E0,8.09565E-2,0E0,0E0,0E0,0E0,0E0,1.1108634E-1,0E0,0E0,0E0,0E0,0E0,0E0,0E0],"parents":[2147483647,0,0,1,1,2,2,3,3,4,4,5,5,6,6,7,7,8,8,9,9,11,11,17,17],"right_children":[2,4,6,8,10,12,14,16,18,20,-1,22,-1,-1,-1,-1,-1,24,-1,-1,-1,-1,-1,-1,-1],"split_conditions":[1.4049832E0,1.6131844E-2,4.1490444E-3,-1.0263717E0,-3.62062E-1,-6.4292216E-1,-3.62062E-1,1.7249656E0,5.323784E-1,-9.583556E-1,-7.081525E-4,8.3052516E-1,2.1141379E-3,4.6098917E-3,3.1144698E-3,-3.5279708E-3,-5.1840222E-3,1.5389675E0,-2.692623E-3,1.4920142E-3,4.2212717E-4,1.2208465E-3,-3.7614684E-4,-1.7292883E-3,-0E0],"split_indices":[6,1,1,1,0,1,0,0,0,0,0,0,0,0,0,0,0,5,0,0,0,0,0,0,0],"split_type":[0,0,0,0,0,0,0,0,0,0,0,0,0,0,0,0,0,0,0,0,0,0,0,0,0],"sum_hessian":[8.14E2,5.21E2,2.93E2,2.63E2,2.58E2,1.18E2,1.75E2,1.01E2,1.62E2,1.51E2,1.07E2,5.9E1,5.9E1,1.08E2,6.7E1,6.1E1,4E1,8E1,8.2E1,6.8E1,8.3E1,1.8E1,4.1E1,6.3E1,1.7E1],"tree_param":{"num_deleted":"0","num_feature":"41","num_nodes":"25","size_leaf_vector":"1"}},{"base_weights":[2.0169262E-3,-6.605378E-2,1.4462203E-1,-1.637871E-1,-2.2908473E-4,1.8910182E-1,4.0373974E-2,-1.0089417E-1,-1.9844824E-1,-3.4424827E-2,1.1201791E-3,2.8960588E-3,4.4148043E-3,-0E0,1.7318422E-3,-2.429252E-3,-7.978913E-4,-4.363007E-3,-2.685153E-3,-4.8834093E-2,2.4853882E-4,-4.7776027E-4,-1.5038552E-3],"categories":[],"categories_nodes":[],"categories_segments":[],"categories_sizes":[],"default_left":[0,0,0,0,0,0,0,0,0,0,0,0,0,0,0,0,0,0,0,0,0,0,0],"id":7,"left_children":[1,3,5,7,9,11,13,15,17,19,-1,-1,-1,-1,-1,-1,-1,-1,-1,21,-1,-1,-1],"loss_changes":[7.7998505E0,3.4567482E0,1.1633849E0,4.1782427E-1,6.19913E-1,1.8446112E-1,1.4019392E-1,6.8478346E-2,1.0655594E-1,1.4436163E-1,0E0,0E0,0E0,0E0,0E0,0E0,0E0,0E0,0E0,8.597854E-2,0E0,0E0,0E0],"parents":[2147483647,0,0,1,1,2,2,3,3,4,4,5,5,6,6,7,7,8,8,9,9,19,19],"right_children":[2,4,6,8,10,12,14,16,18,20,-1,-1,-1,-1,-1,-1,-1,-1,-1,22,-1,-1,-1],"split_conditions":[1.4049832E0,-2.3550697E-1,5.323784E-1,8.3052516E-1,7.9501384E-1,3.6962447E-1,-7.0283616E-1,1.5389675E0,1.5389675E0,1.5389675E0,1.1201791E-3,2.8960588E-3,4.4148043E-3,-0E0,1.7318422E-3,-2.429252E-3,-7.978913E-4,-4.363007E-3,-2.685153E-3,-6.3915215E-2,2.4853882E-4,-4.7776027E-4,-1.5038552E-3],"split_indices":[6,1,0,0,1,1,1,5,5,5,0,0,0,0,0,0,0,0,0,0,0,0,0],"split_type":[0,0,0,0,0,0,0,0,0,0,0,0,0,0,0,0,0,0,0,0,0,0,0],"sum_hessian":[8.02E2,5.42E2,2.6E2,2.17E2,3.25E2,1.81E2,7.9E1,7.9E1,1.38E2,2.04E2,1.21E2,7.7E1,1.04E2,4.3E1,3.6E1,5.7E1,2.2E1,1.04E2,3.4E1,1.59E2,4.5E1,8.5E1,7.4E1],"tree_param":{"num_deleted":"0","num_feature":"41","num_nodes":"23","size_leaf_vector":"1"}},{"base_weights":[5.723053E-4,-6.738971E-2,1.3770926E-1,-1.5732026E-1,-8.821083E-3,4.9325258E-2,1.9527464E-1,-2.1837302E-3,-4.1716215E-3,-3.204968E-2,1.1348765E-3,-0E0,1.8997135E-3,3.3895934E-3,4.9688057E-3,-4.5418892E-2,2.9674624E-4,9.638821E-4,-6.4406445E-4,-4.7167315E-4,-1.4998602E-3],"categories":[],"categories_nodes":[],"categories_segments":[],"categories_sizes":[],"default_left":[0,0,0,0,0,0,0,0,0,0,0,0,0,0,0,0,0,0,0,0,0],"id":8,"left_children":[1,3,5,7,9,11,13,-1,-1,15,-1,17,-1,-1,-1,19,-1,-1,-1,-1,-1],"loss_changes":[7.3853316E0,2.7505333E0,1.2930918E0,4.5044947E-1,4.8358548E-1,2.479282E-1,1.4032221E-1,0E0,0E0,1.5536594E-1,0E0,7.3710725E-2,0E0,0E0,0E0,1.0360867E-1,0E0,0E0,0E0,0E0,0E0],"parents":[2147483647,0,0,1,1,2,2,3,3,4,4,5,5,6,6,9,9,11,11,15,15],"right_children":[2,4,6,8,10,12,14,-1,-1,16,-1,18,-1,-1,-1,20,-1,-1,-1,-1,-1],"split_conditions":[1.4049832E0,-2.3550697E-1,6.406304E-2,1.128672E0,9.627731E-1,-7.0283616E-1,1.0646268E0,-2.1837302E-3,-4.1716215E-3,1.5389675E0,1.1348765E-3,1.128672E0,1.8997135E-3,3.3895934E-3,4.9688057E-3,-6.3915215E-2,2.9674624E-4,9.638821E-4,-6.4406445E-4,-4.7167315E-4,-1.4998602E-3],"split_indices":[6,1,1,0,1,1,1,0,0,5,0,0,0,0,0,0,0,0,0,0,0],"split_type":[0,0,0,0,0,0,0,0,0,0,0,0,0,0,0,0,0,0,0,0,0],"sum_hessian":[7.91E2,5.28E2,2.63E2,2.07E2,3.21E2,1.05E2,1.58E2,1.08E2,9.9E1,2.39E2,8.2E1,4.9E1,5.6E1,1.08E2,5E1,1.89E2,5E1,1.8E1,3.1E1,1.12E2,7.7E1],"tree_param":{"num_deleted":"0","num_feature":"41","num_nodes":"21","size_leaf_vector":"1"}},{"base_weights":[-1.4032751E-3,-6.817938E-2,1.2894492E-1,-1.3884079E-2,-1.7118602E-1,5.5635716E-3,1.6873914E-1,-3.9495107E-2,9.671493E-4,-2.6286005E-3,-4.253922E-3,8.118968E-4,-9.606327E-4,2.5239997E-3,4.15243E-3,-1.48498975E-2,-1.4254387E-3,-8.106239E-4,9.2823684E-5],"categories":[],"categories_nodes":[],"categories_segments":[],"categories_sizes":[],"default_left":[0,0,0,0,0,0,0,0,0,0,0,0,0,0,0,0,0,0,0],"id":9,"left_children":[1,3,5,7,9,11,13,15,-1,-1,-1,-1,-1,-1,-1,17,-1,-1,-1],"loss_changes":[6.847885E0,2.885442E0,1.2740245E0,5.443806E-1,2.3093033E-1,1.22106634E-1,2.6777124E-1,1.7523918E-1,0E0,0E0,0E0,0E0,0E0,0E0,0E0,7.6926365E-2,0E0,0E0,0E0],"parents":[2147483647,0,0,1,1,2,2,3,3,4,4,5,5,6,6,7,7,15,15],"right_children":[2,4,6,8,10,12,14,16,-1,-1,-1,-1,-1,-1,-1,18,-1,-1,-1],"split_conditions":[1.4049832E0,5.323784E-1,-4.3322316E-1,9.0885043E-1,1.4268187E0,1.4268187E0,5.074267E-1,-6.3915215E-2,9.671493E-4,-2.6286005E-3,-4.253922E-3,8.118968E-4,-9.606327E-4,2.5239997E-3,4.15243E-3,2.7376205E-1,-1.4254387E-3,-8.106239E-4,9.2823684E-5],"split_indices":[6,0,1,1,0,0,1,0,0,0,0,0,0,0,0,1,0,0,0],"split_type":[0,0,0,0,0,0,0,0,0,0,0,0,0,0,0,0,0,0,0],"sum_hessian":[7.88E2,5.22E2,2.66E2,3.43E2,1.79E2,6.6E1,2E2,2.45E2,9.8E1,9.3E1,8.6E1,4.2E1,2.4E1,9.7E1,1.03E2,1.41E2,1.04E2,6.5E1,7.6E1],"tree_param":{"num_deleted":"0","num_feature":"41","num_nodes":"19","size_leaf_vector":"1"}},{"base_weights":[1.583589E-3,-6.1425135E-2,1.2640801E-1,-1.6618556E-1,-7.4730874E-3,4.2263456E-2,1.9093823E-1,-4.382876E-3,-2.8204527E-3,-3.4491897E-2,1.1722859E-3,1.6406799E-3,-2.7399283E-4,4.660707E-3,3.1341545E-3,-6.0660255E-5,-1.359511E-3],"categories":[],"categories_nodes":[],"categories_segments":[],"categories_sizes":[],"default_left":[0,0,0,0,0,0,0,0,0,0,0,0,0,0,0,0,0],"id":10,"left_children":[1,3,5,7,9,11,13,-1,-1,15,-1,-1,-1,-1,-1,-1,-1],"loss_changes":[6.296272E0,2.9637046E0,1.417736E0,1.727767E-1,6.213124E-1,2.7404827E-1,1.452837E-1,0E0,0E0,2.5039694E-1,0E0,0E0,0E0,0E0,0E0,0E0,0E0],"parents":[2147483647,0,0,1,1,2,2,3,3,4,4,5,5,6,6,9,9],"right_children":[2,4,6,8,10,12,14,-1,-1,16,-1,-1,-1,-1,-1,-1,-1],"split_conditions":[1.4049832E0,-5.230942E-1,7.604585E-2,-1.2959847E0,8.7889344E-1,1.128672E0,-6.602088E-1,-4.382876E-3,-2.8204527E-3,-6.3915215E-2,1.1722859E-3,1.6406799E-3,-2.7399283E-4,4.660707E-3,3.1341545E-3,-6.0660255E-5,-1.359511E-3],"split_indices":[6,1,1,1,1,0,0,0,0,0,0,0,0,0,0,0,0],"split_type":[0,0,0,0,0,0,0,0,0,0,0,0,0,0,0,0,0],"sum_hessian":[7.99E2,5.3E2,2.69E2,1.79E2,3.51E2,1.18E2,1.51E2,5.6E1,1.23E2,2.51E2,1E2,7.1E1,4.7E1,6.6E1,8.5E1,1.32E2,1.19E2],"tree_param":{"num_deleted":"0","num_feature":"41","num_nodes":"17","size_leaf_vector":"1"}},{"base_weights":[-2.8128762E-4,-6.8417795E-2,1.2960654E-1,-2.0215542E-3,-1.445815E-1,2.1317322E-2,1.6880742E-1,-2.7238436E-2,1.0233663E-3,-4.4759293E-3,-1.1402565E-1,-9.672776E-5,1.2370743E-3,4.1763727E-3,1.420797E-1,-4.4876732E-2,5.04004E-4,-2.8728477E-3,-1.6156066E-3,2.148478E-3,3.5419462E-3,-1.7958739E-5,-1.1889478E-3],"categories":[],"categories_nodes":[],"categories_segments":[],"categories_sizes":[],"default_left":[0,0,0,0,0,0,0,0,0,0,0,0,0,0,0,0,0,0,0,0,0,0,0],"id":11,"left_children":[1,3,5,7,9,11,13,15,-1,-1,17,-1,-1,-1,19,21,-1,-1,-1,-1,-1,-1,-1],"loss_changes":[7.343379E0,2.7342145E0,1.17489E0,3.879225E-1,5.468035E-1,9.184342E-2,1.55478E-1,1.8938829E-1,0E0,0E0,1.3903213E-1,0E0,0E0,0E0,1.0114074E-1,8.621651E-2,0E0,0E0,0E0,0E0,0E0,0E0,0E0],"parents":[2147483647,0,0,1,1,2,2,3,3,4,4,5,5,6,6,7,7,10,10,14,14,15,15],"right_children":[2,4,6,8,10,12,14,16,-1,-1,18,-1,-1,-1,20,22,-1,-1,-1,-1,-1,-1,-1],"split_conditions":[1.4049832E0,2.3423158E-1,-3.9128336E-1,9.0885043E-1,-1.2959847E0,1.5389675E0,-6.602088E-1,1.5389675E0,1.0233663E-3,-4.4759293E-3,-5.710254E-1,-9.672776E-5,1.2370743E-3,4.1763727E-3,1.5389675E0,-6.602088E-1,5.04004E-4,-2.8728477E-3,-1.6156066E-3,2.148478E-3,3.5419462E-3,-1.7958739E-5,-1.1889478E-3],"split_indices":[6,0,1,1,1,5,0,5,0,0,1,0,0,0,5,0,0,0,0,0,0,0,0],"split_type":[0,0,0,0,0,0,0,0,0,0,0,0,0,0,0,0,0,0,0,0,0,0,0],"sum_hessian":[8.31E2,5.46E2,2.85E2,2.93E2,2.53E2,7.7E1,2.08E2,2.01E2,9.2E1,6.9E1,1.84E2,4.4E1,3.3E1,8.1E1,1.27E2,1.53E2,4.8E1,9.5E1,8.9E1,6.6E1,6.1E1,4.1E1,1.12E2],"tree_param":{"num_deleted":"0","num_feature":"41","num_nodes":"23","size_leaf_vector":"1"}},{"base_weights":[1.9949467E-3,-6.758301E-2,1.3384056E-1,-1.352568E-1,3.4590857E-3,1.7311443E-1,3.479925E-2,-4.44072E-3,-1.0868618E-1,-1.5310616E-2,1.3582492E-3,2.393601E-3,2.0039436E-1,-7.5791715E-5,1.653305E-3,-1.216684E-3,-2.5393309E-3,4.6332204E-4,-3.0846646E-2,3.3982957E-3,4.810375E-3,-9.322202E-4,4.354271E-4],"categories":[],"categories_nodes":[],"categories_segments":[],"categories_sizes":[],"default_left":[0,0,0,0,0,0,0,0,0,0,0,0,0,0,0,0,0,0,0,0,0,0,0],"id":12,"left_children":[1,3,5,7,9,11,13,-1,15,17,-1,-1,19,-1,-1,-1,-1,-1,21,-1,-1,-1,-1],"loss_changes":[7.158572E0,2.471399E0,1.0119843E0,5.4020596E-1,3.0788264E-1,2.2203064E-1,1.580669E-1,0E0,1.4024758E-1,1.1428397E-1,0E0,0E0,7.6994896E-2,0E0,0E0,0E0,0E0,0E0,1.183109E-1,0E0,0E0,0E0,0E0],"parents":[2147483647,0,0,1,1,2,2,3,3,4,4,5,5,6,6,8,8,9,9,12,12,18,18],"right_children":[2,4,6,8,10,12,14,-1,16,18,-1,-1,20,-1,-1,-1,-1,-1,22,-1,-1,-1,-1],"split_conditions":[1.4049832E0,-3.7790757E-2,5.323784E-1,-1.2959847E0,1.1305323E0,3.6962447E-1,1.5389675E0,-4.44072E-3,2.3423158E-1,-6.602088E-1,1.3582492E-3,2.393601E-3,1.5389675E0,-7.5791715E-5,1.653305E-3,-1.216684E-3,-2.5393309E-3,4.6332204E-4,1.5389675E0,3.3982957E-3,4.810375E-3,-9.322202E-4,4.354271E-4],"split_indices":[6,1,0,1,1,1,5,0,0,0,0,0,5,0,0,0,0,0,5,0,0,0,0],"split_type":[0,0,0,0,0,0,0,0,0,0,0,0,0,0,0,0,0,0,0,0,0,0,0],"sum_hessian":[7.79E2,5.09E2,2.7E2,2.62E2,2.47E2,1.92E2,7.8E1,6E1,2.02E2,1.89E2,5.8E1,6.7E1,1.25E2,4.1E1,3.7E1,5.8E1,1.44E2,5.1E1,1.38E2,7.3E1,5.2E1,1.09E2,2.9E1],"tree_param":{"num_deleted":"0","num_feature":"41","num_nodes":"23","size_leaf_vector":"1"}},{"base_weights":[1.0629827E-3,-1.2066424E-1,4.9067155E-2,-3.931693E-3,-9.784779E-2,1.8197713E-2,1.18656635E-1,-6.778406E-4,-1.15194E-1,4.8951138E-2,-3.8700417E-2,2.900687E-3,7.12717E-4,-2.6619306E-3,-1.2524637E-3,5.804136E-4,1.893591E-3,-1.1185084E-3,1.8479885E-5],"categories":[],"categories_nodes":[],"categories_segments":[],"categories_sizes":[],"default_left":[0,0,0,0,0,0,0,0,0,0,0,0,0,0,0,0,0,0,0],"id":13,"left_children":[1,3,5,-1,7,9,11,-1,13,15,17,-1,-1,-1,-1,-1,-1,-1,-1],"loss_changes":[4.720132E0,3.387499E-1,1.2250873E0,0E0,1.6913533E-1,7.1059793E-1,3.5067534E-1,0E0,9.140563E-2,2.185154E-1,1.0505736E-1,0E0,0E0,0E0,0E0,0E0,0E0,0E0,0E0],"parents":[2147483647,0,0,1,1,2,2,4,4,5,5,6,6,8,8,9,9,10,10],"right_children":[2,4,6,-1,8,10,12,-1,14,16,18,-1,-1,-1,-1,-1,-1,-1,-1],"split_conditions":[-5.8300817E-1,-1.613529E0,1.5389675E0,-3.931693E-3,5.323784E-1,-6.3915215E-2,2.3423158E-1,-6.778406E-4,1.5389675E0,1.1305323E0,3.6962447E-1,2.900687E-3,7.12717E-4,-2.6619306E-3,-1.2524637E-3,5.804136E-4,1.893591E-3,-1.1185084E-3,1.8479885E-5],"split_indices":[1,1,5,0,0,0,0,0,5,1,1,0,0,0,0,0,0,0,0],"split_type":[0,0,0,0,0,0,0,0,0,0,0,0,0,0,0,0,0,0,0],"sum_hessian":[8.1E2,2.28E2,5.82E2,5.1E1,1.77E2,4.05E2,1.77E2,4E1,1.37E2,2.65E2,1.4E2,1.33E2,4.4E1,1E2,3.7E1,1.87E2,7.8E1,1.01E2,3.9E1],"tree_param":{"num_deleted":"0","num_feature":"41","num_nodes":"19","size_leaf_vector":"1"}},{"base_weights":[-2.2574794E-3,-6.578393E-2,1.2882085E-1,-1.5194817E-1,-9.768638E-4,2.9256042E-2,1.7271225E-1,-2.2776884E-3,-4.3123006E-3,9.99047E-4,-2.9814206E-2,1.3469468E-3,-6.3545536E-5,4.803236E-3,2.9532565E-3,-8.293772E-5,-1.069012E-3],"categories":[],"categories_nodes":[],"categories_segments":[],"categories_sizes":[],"default_left":[0,0,0,0,0,0,0,0,0,0,0,0,0,0,0,0,0],"id":14,"left_children":[1,3,5,7,9,11,13,-1,-1,-1,15,-1,-1,-1,-1,-1,-1],"loss_changes":[6.4919353E0,2.9147418E0,1.072854E0,4.8413754E-1,4.3905318E-1,1.090408E-1,2.2544622E-1,0E0,0E0,0E0,1.0726473E-1,0E0,0E0,0E0,0E0,0E0,0E0],"parents":[2147483647,0,0,1,1,2,2,3,3,4,4,5,5,6,6,10,10],"right_children":[2,4,6,8,10,12,14,-1,-1,-1,16,-1,-1,-1,-1,-1,-1],"split_conditions":[1.4049832E0,-2.3550697E-1,-3.1938657E-1,1.4268187E0,-6.602088E-1,1.128672E0,-9.583556E-1,-2.2776884E-3,-4.3123006E-3,9.99047E-4,-6.3915215E-2,1.3469468E-3,-6.3545536E-5,4.803236E-3,2.9532565E-3,-8.293772E-5,-1.069012E-3],"split_indices":[6,1,1,0,0,0,0,0,0,0,0,0,0,0,0,0,0],"split_type":[0,0,0,0,0,0,0,0,0,0,0,0,0,0,0,0,0],"sum_hessian":[7.81E2,5.27E2,2.54E2,2.25E2,3.02E2,7.9E1,1.75E2,1.42E2,8.3E1,1.07E2,1.95E2,3.9E1,4E1,4.6E1,1.29E2,9.7E1,9.8E1],"tree_param":{"num_deleted":"0","num_feature":"41","num_nodes":"17","size_leaf_vector":"1"}},{"base_weights":[-1.7628865E-3,-5.82241E-2,1.2072988E-1,-1.0288045E-2,-1.5061817E-1,1.6015123E-1,2.3898212E-2,2.2460995E-2,-4.8609715E-2,-1.2332752E-1,-4.3365443E-3,2.651249E-3,3.8157646E-3,-2.1000054E-4,1.390882E-3,1.0660132E-3,2.2208926E-3,-1.2638494E-3,1.9682855E-4,-2.8247265E-3,-1.5215335E-3,-2.2417471E-4,1.0873306E-3],"categories":[],"categories_nodes":[],"categories_segments":[],"categories_sizes":[],"default_left":[0,0,0,0,0,0,0,0,0,0,0,0,0,0,0,0,0,0,0,0,0,0,0],"id":15,"left_children":[1,3,5,7,9,11,13,15,17,19,-1,-1,-1,-1,-1,-1,21,-1,-1,-1,-1,-1,-1],"loss_changes":[5.6667705E0,2.463982E0,9.5101285E-1,4.7169173E-1,2.8023195E-1,9.3804836E-2,1.2977242E-1,1.1300083E-1,1.5684432E-1,7.4555635E-2,0E0,0E0,0E0,0E0,0E0,0E0,9.376085E-2,0E0,0E0,0E0,0E0,0E0,0E0],"parents":[2147483647,0,0,1,1,2,2,3,3,4,4,5,5,6,6,7,7,8,8,9,9,16,16],"right_children":[2,4,6,8,10,12,14,16,18,20,-1,-1,-1,-1,-1,-1,22,-1,-1,-1,-1,-1,-1],"split_conditions":[1.4049832E0,5.323784E-1,5.323784E-1,-3.62062E-1,1.7249656E0,1.5389675E0,1.5389675E0,-9.583556E-1,1.5389675E0,1.5389675E0,-4.3365443E-3,2.651249E-3,3.8157646E-3,-2.1000054E-4,1.390882E-3,1.0660132E-3,1.5389675E0,-1.2638494E-3,1.9682855E-4,-2.8247265E-3,-1.5215335E-3,-2.2417471E-4,1.0873306E-3],"split_indices":[6,0,0,0,0,5,5,0,5,5,0,0,0,0,0,0,5,0,0,0,0,0,0],"split_type":[0,0,0,0,0,0,0,0,0,0,0,0,0,0,0,0,0,0,0,0,0,0,0],"sum_hessian":[8.21E2,5.63E2,2.58E2,3.72E2,1.91E2,1.82E2,7.6E1,1.98E2,1.74E2,1.37E2,5.4E1,9.8E1,8.4E1,4.1E1,3.5E1,7.5E1,1.23E2,1.42E2,3.2E1,9.7E1,4E1,9.5E1,2.8E1],"tree_param":{"num_deleted":"0","num_feature":"41","num_nodes":"23","size_leaf_vector":"1"}},{"base_weights":[-1.2575347E-3,-6.0124557E-2,1.1710147E-1,-1.3833775E-1,-6.3711237E-3,1.7101048E-1,3.1952005E-2,-1.07384756E-1,-3.90647E-3,-3.952912E-2,3.0158699E-2,2.4931375E-3,3.8152428E-3,-1.1497683E-4,1.407423E-3,-2.4606425E-3,-1.0754897E-3,-5.6016337E-2,2.1434171E-4,2.7838597E-4,1.3204014E-3,-4.9278437E-4,-1.5461337E-3],"categories":[],"categories_nodes":[],"categories_segments":[],"categories_sizes":[],"default_left":[0,0,0,0,0,0,0,0,0,0,0,0,0,0,0,0,0,0,0,0,0,0,0],"id":16,"left_children":[1,3,5,7,9,11,13,15,-1,17,19,-1,-1,-1,-1,-1,-1,21,-1,-1,-1,-1,-1],"loss_changes":[5.6751103E0,2.2689424E0,1.2020669E0,3.314786E-1,3.9540675E-1,9.001875E-2,1.6482958E-1,8.7534666E-2,0E0,1.516051E-1,7.368198E-2,0E0,0E0,0E0,0E0,0E0,0E0,6.964564E-2,0E0,0E0,0E0,0E0,0E0],"parents":[2147483647,0,0,1,1,2,2,3,3,4,4,5,5,6,6,7,7,9,9,10,10,17,17],"right_children":[2,4,6,8,10,12,14,16,-1,18,20,-1,-1,-1,-1,-1,-1,22,-1,-1,-1,-1,-1],"split_conditions":[1.4049832E0,-3.0141237E-1,2.3423158E-1,1.4268187E0,5.8531487E-1,3.4565884E-1,-6.6089636E-1,1.5389675E0,-3.90647E-3,1.5389675E0,1.3162657E0,2.4931375E-3,3.8152428E-3,-1.1497683E-4,1.407423E-3,-2.4606425E-3,-1.0754897E-3,-6.3915215E-2,2.1434171E-4,2.7838597E-4,1.3204014E-3,-4.9278437E-4,-1.5461337E-3],"split_indices":[6,1,0,0,1,1,1,5,0,5,1,0,0,0,0,0,0,0,0,0,0,0,0],"split_type":[0,0,0,0,0,0,0,0,0,0,0,0,0,0,0,0,0,0,0,0,0,0,0],"sum_hessian":[8.16E2,5.46E2,2.7E2,2.21E2,3.25E2,1.64E2,1.06E2,1.45E2,7.6E1,1.73E2,1.52E2,5.1E1,1.13E2,5.1E1,5.5E1,1.1E2,3.5E1,1.33E2,4E1,1.08E2,4.4E1,5.7E1,7.6E1],"tree_param":{"num_deleted":"0","num_feature":"41","num_nodes":"23","size_leaf_vector":"1"}},{"base_weights":[-1.2653619E-3,-5.6738783E-2,1.18262954E-1,-1.2006857E-1,3.6327343E-3,3.1059952E-2,1.6962421E-1,-1.6885744E-3,-3.3444483E-3,-1.8929692E-2,8.2126627E-4,1.0943064E-3,-5.327346E-4,2.8433728E-3,4.100216E-3,-6.7180913E-4,5.988567E-4],"categories":[],"categories_nodes":[],"categories_segments":[],"categories_sizes":[],"default_left":[0,0,0,0,0,0,0,0,0,0,0,0,0,0,0,0,0],"id":17,"left_children":[1,3,5,7,9,11,13,-1,-1,15,-1,-1,-1,-1,-1,-1,-1],"loss_changes":[5.2403054E0,2.093688E0,1.0828135E0,3.997016E-1,2.366726E-1,1.327978E-1,8.7362766E-2,0E0,0E0,1.21107064E-1,0E0,0E0,0E0,0E0,0E0,0E0,0E0],"parents":[2147483647,0,0,1,1,2,2,3,3,4,4,5,5,6,6,9,9],"right_children":[2,4,6,8,10,12,14,-1,-1,16,-1,-1,-1,-1,-1,-1,-1],"split_conditions":[1.4049832E0,-3.7790757E-2,6.406304E-2,1.128672E0,8.3695364E-1,1.4268187E0,1.5389675E0,-1.6885744E-3,-3.3444483E-3,1.5389675E0,8.2126627E-4,1.0943064E-3,-5.327346E-4,2.8433728E-3,4.100216E-3,-6.7180913E-4,5.988567E-4],"split_indices":[6,1,1,0,1,0,5,0,0,5,0,0,0,0,0,0,0],"split_type":[0,0,0,0,0,0,0,0,0,0,0,0,0,0,0,0,0],"sum_hessian":[7.92E2,5.42E2,2.5E2,2.66E2,2.76E2,9.4E1,1.56E2,1.53E2,1.13E2,1.69E2,1.07E2,6.9E1,2.5E1,9E1,6.6E1,1.33E2,3.6E1],"tree_param":{"num_deleted":"0","num_feature":"41","num_nodes":"17","size_leaf_vector":"1"}},{"base_weights":[-6.977424E-4,-5.7899635E-2,1.12582594E-1,-1.1971295E-1,7.048985E-3,3.1780686E-2,1.6750383E-1,-1.6857164E-3,-1.7236769E-1,9.175449E-4,-1.8084481E-2,1.2771161E-3,-2.2543014E-4,2.430008E-3,3.922016E-3,-4.219199E-3,-2.7553185E-3,-7.043197E-4,1.3421646E-4],"categories":[],"categories_nodes":[],"categories_segments":[],"categories_sizes":[],"default_left":[0,0,0,0,0,0,0,0,0,0,0,0,0,0,0,0,0,0,0],"id":18,"left_children":[1,3,5,7,9,11,13,-1,15,-1,17,-1,-1,-1,-1,-1,-1,-1,-1],"loss_changes":[5.1480484E0,2.148549E0,1.1437945E0,4.6428084E-1,2.5535026E-1,1.5954244E-1,1.4634848E-1,0E0,7.951403E-2,0E0,6.9940254E-2,0E0,0E0,0E0,0E0,0E0,0E0,0E0,0E0],"parents":[2147483647,0,0,1,1,2,2,3,3,4,4,5,5,6,6,8,8,10,10],"right_children":[2,4,6,8,10,12,14,-1,16,-1,18,-1,-1,-1,-1,-1,-1,-1,-1],"split_conditions":[1.4049832E0,-2.5807956E-2,6.406304E-2,1.128672E0,-6.602088E-1,1.128672E0,6.2126327E-1,-1.6857164E-3,-1.254045E0,9.175449E-4,6.8716866E-1,1.2771161E-3,-2.2543014E-4,2.430008E-3,3.922016E-3,-4.219199E-3,-2.7553185E-3,-7.043197E-4,1.3421646E-4],"split_indices":[6,1,1,0,0,0,1,0,1,0,1,0,0,0,0,0,0,0,0],"split_type":[0,0,0,0,0,0,0,0,0,0,0,0,0,0,0,0,0,0,0],"sum_hessian":[7.96E2,5.3E2,2.66E2,2.73E2,2.57E2,1.09E2,1.57E2,1.65E2,1.08E2,1.04E2,1.53E2,6.5E1,4.4E1,6.2E1,9.5E1,4.9E1,5.9E1,9.5E1,5.8E1],"tree_param":{"num_deleted":"0","num_feature":"41","num_nodes":"19","size_leaf_vector":"1"}},{"base_weights":[1.1523599E-3,-5.3686835E-2,1.1364454E-1,-1.4090875E-1,-1.126485E-2,3.1830855E-2,1.5809971E-1,-1.12339295E-1,-3.8302152E-3,-3.512255E-2,8.910598E-4,1.2219339E-3,-2.675057E-4,1.2807117E-1,3.8919093E-3,-2.5860455E-3,-1.1140773E-3,-4.7431167E-2,9.810958E-5,1.8014009E-3,3.3511955E-3,-1.5007833E-3,-5.342878E-4],"categories":[],"categories_nodes":[],"categories_segments":[],"categories_sizes":[],"default_left":[0,0,0,0,0,0,0,0,0,0,0,0,0,0,0,0,0,0,0,0,0,0,0],"id":19,"left_children":[1,3,5,7,9,11,13,15,-1,17,-1,-1,-1,19,-1,-1,-1,21,-1,-1,-1,-1,-1],"loss_changes":[4.8846493E0,1.9331155E0,9.107001E-1,1.9085097E-1,4.7433016E-1,1.3125809E-1,1.21647835E-1,7.221937E-2,0E0,1.3244855E-1,0E0,0E0,0E0,9.313059E-2,0E0,0E0,0E0,9.367967E-2,0E0,0E0,0E0,0E0,0E0],"parents":[2147483647,0,0,1,1,2,2,3,3,4,4,5,5,6,6,7,7,9,9,13,13,17,17],"right_children":[2,4,6,8,10,12,14,16,-1,18,-1,-1,-1,20,-1,-1,-1,22,-1,-1,-1,-1,-1],"split_conditions":[1.4049832E0,-5.230942E-1,4.1490444E-3,1.4268187E0,8.7889344E-1,1.128672E0,1.5389675E0,1.5389675E0,-3.8302152E-3,1.5389675E0,8.910598E-4,1.2219339E-3,-2.675057E-4,9.507903E-1,3.8919093E-3,-2.5860455E-3,-1.1140773E-3,1.00011446E-1,9.810958E-5,1.8014009E-3,3.3511955E-3,-1.5007833E-3,-5.342878E-4],"split_indices":[6,1,1,0,1,0,5,5,0,5,0,0,0,1,0,0,0,1,0,0,0,0,0],"split_type":[0,0,0,0,0,0,0,0,0,0,0,0,0,0,0,0,0,0,0,0,0,0,0],"sum_hessian":[7.9E2,5.3E2,2.6E2,1.72E2,3.58E2,9.3E1,1.67E2,1.12E2,6E1,2.53E2,1.05E2,5.9E1,3.4E1,9.4E1,7.3E1,8.4E1,2.8E1,1.97E2,5.6E1,5E1,4.4E1,8.1E1,1.16E2],"tree_param":{"num_deleted":"0","num_feature":"41","num_nodes":"23","size_leaf_vector":"1"}},{"base_weights":[7.632252E-6,-6.0612433E-2,1.14030905E-1,-1.2812916E-2,-1.4565213E-1,1.5091282E-1,2.0903448E-2,-4.311883E-2,1.9990398E-2,-3.969177E-3,-2.2316924E-3,2.1381446E-3,3.5382018E-3,-5.0163584E-5,1.3704053E-3,-1.1136305E-3,-0E0,7.9071237E-4,-4.366416E-5],"categories":[],"categories_nodes":[],"categories_segments":[],"categories_sizes":[],"default_left":[0,0,0,0,0,0,0,0,0,0,0,0,0,0,0,0,0,0,0],"id":20,"left_children":[1,3,5,7,9,11,13,15,17,-1,-1,-1,-1,-1,-1,-1,-1,-1,-1],"loss_changes":[5.505088E0,2.0764883E0,9.198351E-1,3.3531868E-1,2.753849E-1,1.7120886E-1,1.010457E-1,9.9015534E-2,7.4625485E-2,0E0,0E0,0E0,0E0,0E0,0E0,0E0,0E0,0E0,0E0],"parents":[2147483647,0,0,1,1,2,2,3,3,4,4,5,5,6,6,7,7,8,8],"right_children":[2,4,6,8,10,12,14,16,18,-1,-1,-1,-1,-1,-1,-1,-1,-1,-1],"split_conditions":[1.4049832E0,5.323784E-1,5.323784E-1,5.254009E-1,-1.2780106E0,3.5764164E-1,1.5389675E0,1.5389675E0,-6.602088E-1,-3.969177E-3,-2.2316924E-3,2.1381446E-3,3.5382018E-3,-5.0163584E-5,1.3704053E-3,-1.1136305E-3,-0E0,7.9071237E-4,-4.366416E-5],"split_indices":[6,0,0,1,1,1,5,5,0,0,0,0,0,0,0,0,0,0,0],"split_type":[0,0,0,0,0,0,0,0,0,0,0,0,0,0,0,0,0,0,0],"sum_hessian":[7.95E2,5.18E2,2.77E2,3.33E2,1.85E2,1.97E2,8E1,1.76E2,1.57E2,7.1E1,1.14E2,7.5E1,1.22E2,5.1E1,2.9E1,1.38E2,3.8E1,8.8E1,6.9E1],"tree_param":{"num_deleted":"0","num_feature":"41","num_nodes":"19","size_leaf_vector":"1"}},{"base_weights":[-6.928942E-3,-5.854344E-2,9.8526E-2,-0E0,-1.2740588E-1,1.4046001E-1,1.0610373E-2,9.824538E-4,-1.6159298E-2,-1.0389195E-1,-3.990879E-3,3.4989093E-3,1.1003052E-1,-2.5306764E-4,1.0095622E-3,-5.516556E-4,5.0381286E-4,-2.340809E-3,-1.1593162E-3,2.4694144E-3,5.1223097E-4],"categories":[],"categories_nodes":[],"categories_segments":[],"categories_sizes":[],"default_left":[0,0,0,0,0,0,0,0,0,0,0,0,0,0,0,0,0,0,0,0,0],"id":21,"left_children":[1,3,5,7,9,11,13,-1,15,17,-1,-1,19,-1,-1,-1,-1,-1,-1,-1,-1],"loss_changes":[4.401604E0,2.2065392E0,9.492161E-1,2.353596E-1,3.6759233E-1,1.3245559E-1,8.73686E-2,0E0,1.0377136E-1,8.147287E-2,0E0,0E0,8.081305E-2,0E0,0E0,0E0,0E0,0E0,0E0,0E0,0E0],"parents":[2147483647,0,0,1,1,2,2,3,3,4,4,5,5,6,6,8,8,9,9,12,12],"right_children":[2,4,6,8,10,12,14,-1,16,18,-1,-1,20,-1,-1,-1,-1,-1,-1,-1,-1],"split_conditions":[1.4049832E0,2.3423158E-1,5.323784E-1,-9.583556E-1,1.7249656E0,-6.602088E-1,1.5389675E0,9.824538E-4,1.5389675E0,1.5389675E0,-3.990879E-3,3.4989093E-3,1.0006407E0,-2.5306764E-4,1.0095622E-3,-5.516556E-4,5.0381286E-4,-2.340809E-3,-1.1593162E-3,2.4694144E-3,5.1223097E-4],"split_indices":[6,0,0,0,0,0,5,0,5,5,0,0,2,0,0,0,0,0,0,0,0],"split_type":[0,0,0,0,0,0,0,0,0,0,0,0,0,0,0,0,0,0,0,0,0],"sum_hessian":[8.1E2,5.45E2,2.65E2,2.94E2,2.51E2,1.78E2,8.7E1,7.4E1,2.2E2,1.91E2,6E1,8.1E1,9.7E1,5.2E1,3.5E1,1.76E2,4.4E1,1.46E2,4.5E1,8.2E1,1.5E1],"tree_param":{"num_deleted":"0","num_feature":"41","num_nodes":"21","size_leaf_vector":"1"}},{"base_weights":[4.1107647E-3,-5.1774807E-2,1.0491731E-1,-7.1333423E-3,-1.3029042E-1,1.4124382E-1,1.4724348E-2,7.7740254E-4,-3.2698963E-2,-1.4819525E-1,-1.3565664E-3,2.3197813E-3,3.3831734E-3,8.60991E-4,-4.918274E-4,-9.2606636E-4,2.680131E-4,-2.362508E-3,-3.6733535E-3],"categories":[],"categories_nodes":[],"categories_segments":[],"categories_sizes":[],"default_left":[0,0,0,0,0,0,0,0,0,0,0,0,0,0,0,0,0,0,0],"id":22,"left_children":[1,3,5,7,9,11,13,-1,15,17,-1,-1,-1,-1,-1,-1,-1,-1,-1],"loss_changes":[4.4773593E0,1.7588365E0,9.0183735E-1,3.816981E-1,1.6530132E-1,8.87661E-2,9.5462866E-2,0E0,1.3807012E-1,9.33671E-2,0E0,0E0,0E0,0E0,0E0,0E0,0E0,0E0,0E0],"parents":[2147483647,0,0,1,1,2,2,3,3,4,4,5,5,6,6,8,8,9,9],"right_children":[2,4,6,8,10,12,14,-1,16,18,-1,-1,-1,-1,-1,-1,-1,-1,-1],"split_conditions":[1.4049832E0,5.323784E-1,5.323784E-1,-6.602088E-1,1.5389675E0,1.5389675E0,1.4268187E0,7.7740254E-4,1.5389675E0,1.4268187E0,-1.3565664E-3,2.3197813E-3,3.3831734E-3,8.60991E-4,-4.918274E-4,-9.2606636E-4,2.680131E-4,-2.362508E-3,-3.6733535E-3],"split_indices":[6,0,0,0,5,5,0,0,5,0,0,0,0,0,0,0,0,0,0],"split_type":[0,0,0,0,0,0,0,0,0,0,0,0,0,0,0,0,0,0,0],"sum_hessian":[7.93E2,5.09E2,2.84E2,3.26E2,1.83E2,2.01E2,8.3E1,1.14E2,2.12E2,1.4E2,4.3E1,1.08E2,9.3E1,5.1E1,3.2E1,1.67E2,4.5E1,7.8E1,6.2E1],"tree_param":{"num_deleted":"0","num_feature":"41","num_nodes":"19","size_leaf_vector":"1"}},{"base_weights":[-1.206182E-3,-5.4369837E-2,1.0135759E-1,-1.1814051E-1,5.024378E-3,7.301328E-5,1.3438886E-1,-3.9355294E-3,-9.899524E-2,-3.2178225E-4,9.2671026E-4,-1.0191126E-3,4.3402027E-4,2.1380966E-3,3.327125E-3,-2.3690069E-3,-1.3616412E-3],"categories":[],"categories_nodes":[],"categories_segments":[],"categories_sizes":[],"default_left":[0,0,0,0,0,0,0,0,0,0,0,0,0,0,0,0,0],"id":23,"left_children":[1,3,5,7,9,11,13,-1,15,-1,-1,-1,-1,-1,-1,-1,-1],"loss_changes":[4.402687E0,2.043425E0,8.9534664E-1,3.3356547E-1,2.4456635E-1,7.051707E-2,1.3020134E-1,0E0,9.104872E-2,0E0,0E0,0E0,0E0,0E0,0E0,0E0,0E0],"parents":[2147483647,0,0,1,1,2,2,3,3,4,4,5,5,6,6,8,8],"right_children":[2,4,6,8,10,12,14,-1,16,-1,-1,-1,-1,-1,-1,-1,-1],"split_conditions":[1.4049832E0,-8.5721955E-2,-4.8115435E-1,-1.4277955E0,8.9686763E-1,-1.4757267E0,6.2126327E-1,-3.9355294E-3,-5.9499097E-1,-3.2178225E-4,9.2671026E-4,-1.0191126E-3,4.3402027E-4,2.1380966E-3,3.327125E-3,-2.3690069E-3,-1.3616412E-3],"split_indices":[6,1,1,1,1,1,1,0,1,0,0,0,0,0,0,0,0],"split_type":[0,0,0,0,0,0,0,0,0,0,0,0,0,0,0,0,0],"sum_hessian":[8.09E2,5.34E2,2.75E2,2.59E2,2.75E2,6.9E1,2.06E2,4.9E1,2.1E2,1.79E2,9.6E1,1.8E1,5.1E1,1.13E2,9.3E1,1.26E2,8.4E1],"tree_param":{"num_deleted":"0","num_feature":"41","num_nodes":"17","size_leaf_vector":"1"}},{"base_weights":[2.3713263E-3,-9.912116E-2,4.175856E-2,-3.6245855E-3,-1.7165693E-3,1.646444E-2,2.2153195E-3,3.7999578E-2,-1.2204374E-4,8.9929905E-4,-5.653535E-4],"categories":[],"categories_nodes":[],"categories_segments":[],"categories_sizes":[],"default_left":[0,0,0,0,0,0,0,0,0,0,0],"id":24,"left_children":[1,3,5,-1,-1,7,-1,9,-1,-1,-1],"loss_changes":[3.1395798E0,1.9179559E-1,9.667843E-1,0E0,0E0,2.0890659E-1,0E0,1.0238469E-1,0E0,0E0,0E0],"parents":[2147483647,0,0,1,1,2,2,5,5,7,7],"right_children":[2,4,6,-1,-1,8,-1,10,-1,-1,-1],"split_conditions":[-5.530512E-1,-1.793271E0,9.627731E-1,-3.6245855E-3,-1.7165693E-3,-6.3915215E-2,2.2153195E-3,2.294465E0,-1.2204374E-4,8.9929905E-4,-5.653535E-4],"split_indices":[1,1,1,0,0,0,0,2,0,0,0],"split_type":[0,0,0,0,0,0,0,0,0,0,0],"sum_hessian":[7.88E2,2.19E2,5.69E2,2.9E1,1.9E2,4.18E2,1.51E2,2.18E2,2E2,2E2,1.8E1],"tree_param":{"num_deleted":"0","num_feature":"41","num_nodes":"11","size_leaf_vector":"1"}},{"base_weights":[3.5703368E-3,-5.125418E-2,1.0289767E-1,1.1111572E-4,-1.0998678E-1,1.3675955E-1,1.5339754E-2,-1.3243722E-2,1.1506078E-3,-8.892989E-2,-3.6304884E-3,1.0804352E-1,3.4141364E-3,-2.0403024E-4,1.1626672E-3,-5.38929E-4,5.5806426E-4,-2.221519E-3,-1.2404799E-3,2.570962E-3,1.1545656E-3],"categories":[],"categories_nodes":[],"categories_segments":[],"categories_sizes":[],"default_left":[0,0,0,0,0,0,0,0,0,0,0,0,0,0,0,0,0,0,0,0,0],"id":25,"left_children":[1,3,5,7,9,11,13,15,-1,17,-1,19,-1,-1,-1,-1,-1,-1,-1,-1,-1],"loss_changes":[4.3551774E0,1.5678592E0,8.170383E-1,2.1631515E-1,3.1146097E-1,1.4558315E-1,9.704912E-2,1.22132525E-1,0E0,7.960832E-2,0E0,8.1190825E-2,0E0,0E0,0E0,0E0,0E0,0E0,0E0,0E0,0E0],"parents":[2147483647,0,0,1,1,2,2,3,3,4,4,5,5,6,6,7,7,9,9,11,11],"right_children":[2,4,6,8,10,12,14,16,-1,18,-1,20,-1,-1,-1,-1,-1,-1,-1,-1,-1],"split_conditions":[1.4049832E0,2.3423158E-1,5.323784E-1,1.1305323E0,1.7249656E0,1.5389675E0,1.5389675E0,1.5389675E0,1.1506078E-3,-5.8300817E-1,-3.6304884E-3,-3.62062E-1,3.4141364E-3,-2.0403024E-4,1.1626672E-3,-5.38929E-4,5.5806426E-4,-2.221519E-3,-1.2404799E-3,2.570962E-3,1.1545656E-3],"split_indices":[6,0,0,1,0,5,5,5,0,1,0,0,0,0,0,0,0,0,0,0,0],"split_type":[0,0,0,0,0,0,0,0,0,0,0,0,0,0,0,0,0,0,0,0,0],"sum_hessian":[7.98E2,5.13E2,2.85E2,2.72E2,2.41E2,2.04E2,8.1E1,2.18E2,5.4E1,1.88E2,5.3E1,1.13E2,9.1E1,4.8E1,3.3E1,1.67E2,5.1E1,1E2,8.8E1,7.8E1,3.5E1],"tree_param":{"num_deleted":"0","num_feature":"41","num_nodes":"21","size_leaf_vector":"1"}},{"base_weights":[-7.038081E-3,-5.3731695E-2,9.065481E-2,-1.1345786E-1,-2.757863E-3,1.2749903E-1,3.876295E-3,-3.3848193E-3,-9.01314E-2,1.3955117E-3,-1.4256947E-2,1.9982944E-3,3.2236832E-3,-3.7585423E-4,9.865054E-4,-2.1436687E-3,-8.8320306E-4,-2.4790928E-2,5.430688E-4,-1.0765711E-3,-1.3272864E-4],"categories":[],"categories_nodes":[],"categories_segments":[],"categories_sizes":[],"default_left":[0,0,0,0,0,0,0,0,0,0,0,0,0,0,0,0,0,0,0,0,0],"id":26,"left_children":[1,3,5,7,9,11,13,-1,15,-1,17,-1,-1,-1,-1,-1,-1,19,-1,-1,-1],"loss_changes":[3.5377045E0,1.5831015E0,7.7519965E-1,2.6400518E-1,2.279435E-1,1.1323762E-1,8.363891E-2,0E0,1.05646014E-1,0E0,1.0806911E-1,0E0,0E0,0E0,0E0,0E0,0E0,9.509178E-2,0E0,0E0,0E0],"parents":[2147483647,0,0,1,1,2,2,3,3,4,4,5,5,6,6,8,8,10,10,17,17],"right_children":[2,4,6,8,10,12,14,-1,16,-1,18,-1,-1,-1,-1,-1,-1,20,-1,-1,-1],"split_conditions":[1.4049832E0,-2.3550697E-1,5.323784E-1,-1.2959847E0,-1.2565024E0,7.1113425E-1,-6.4292216E-1,-3.3848193E-3,1.5389675E0,1.3955117E-3,1.5389675E0,1.9982944E-3,3.2236832E-3,-3.7585423E-4,9.865054E-4,-2.1436687E-3,-8.8320306E-4,3.9958146E-1,5.430688E-4,-1.0765711E-3,-1.3272864E-4],"split_indices":[6,1,0,1,0,1,1,0,5,0,5,0,0,0,0,0,0,1,0,0,0],"split_type":[0,0,0,0,0,0,0,0,0,0,0,0,0,0,0,0,0,0,0,0,0],"sum_hessian":[7.77E2,5.27E2,2.5E2,2.41E2,2.86E2,1.74E2,7.6E1,6.9E1,1.72E2,3.7E1,2.49E2,9.8E1,7.6E1,4.8E1,2.8E1,1.23E2,4.9E1,2.02E2,4.7E1,7.4E1,1.28E2],"tree_param":{"num_deleted":"0","num_feature":"41","num_nodes":"21","size_leaf_vector":"1"}},{"base_weights":[-3.3628056E-4,-4.654868E-2,9.834452E-2,-1.2021111E-1,-2.3293062E-3,4.1007967E-5,1.3660207E-1,-1.995645E-3,-3.5859928E-3,-2.1349033E-2,8.9035765E-4,3.526601E-3,1.0468169E-1,-0E0,-9.1878E-4,2.2783228E-3,-0E0],"categories":[],"categories_nodes":[],"categories_segments":[],"categories_sizes":[],"default_left":[0,0,0,0,0,0,0,0,0,0,0,0,0,0,0,0,0],"id":27,"left_children":[1,3,5,7,9,-1,11,-1,-1,13,-1,-1,15,-1,-1,-1,-1],"loss_changes":[3.812089E0,1.8406847E0,9.545269E-1,2.0662236E-1,3.1507242E-1,0E0,1.8586254E-1,0E0,0E0,1.3260481E-1,0E0,0E0,8.144379E-2,0E0,0E0,0E0,0E0],"parents":[2147483647,0,0,1,1,2,2,3,3,4,4,6,6,9,9,12,12],"right_children":[2,4,6,8,10,-1,12,-1,-1,14,-1,-1,16,-1,-1,-1,-1],"split_conditions":[1.4049832E0,-3.0141237E-1,-3.1938657E-1,1.7249656E0,9.0885043E-1,4.1007967E-5,-6.602088E-1,-1.995645E-3,-3.5859928E-3,-6.3915215E-2,8.9035765E-4,3.526601E-3,1.3663205E0,-0E0,-9.1878E-4,2.2783228E-3,-0E0],"split_indices":[6,1,1,0,1,0,0,0,0,0,0,0,2,0,0,0,0],"split_type":[0,0,0,0,0,0,0,0,0,0,0,0,0,0,0,0,0],"sum_hessian":[8.38E2,5.72E2,2.66E2,2.13E2,3.59E2,7.7E1,1.89E2,1.6E2,5.3E1,2.58E2,1.01E2,8.2E1,1.07E2,1.39E2,1.19E2,9.7E1,1E1],"tree_param":{"num_deleted":"0","num_feature":"41","num_nodes":"17","size_leaf_vector":"1"}},{"base_weights":[3.7721256E-3,-4.5331802E-2,9.420813E-2,-5.609187E-3,-1.1690787E-1,1.3048278E-1,1.6945567E-2,2.14805E-2,-3.6894757E-2,-2.6604014E-3,-1.3585363E-3,1.0231538E-1,3.2459195E-3,-1.0564443E-4,1.1823464E-3,1.4327294E-3,8.824607E-3,-1.0520185E-3,2.3551002E-4,2.5213528E-3,9.102199E-4,-3.392584E-5,1.003488E-3],"categories":[],"categories_nodes":[],"categories_segments":[],"categories_sizes":[],"default_left":[0,0,0,0,0,0,0,0,0,0,0,0,0,0,0,0,0,0,0,0,0,0,0],"id":28,"left_children":[1,3,5,7,9,11,13,15,17,-1,-1,19,-1,-1,-1,-1,21,-1,-1,-1,-1,-1,-1],"loss_changes":[3.6016564E0,1.4644889E0,7.7446866E-1,2.8931195E-1,1.07120275E-1,1.2250447E-1,9.679528E-2,9.791448E-2,1.2897512E-1,0E0,0E0,1.0891914E-1,0E0,0E0,0E0,0E0,7.181533E-2,0E0,0E0,0E0,0E0,0E0,0E0],"parents":[2147483647,0,0,1,1,2,2,3,3,4,4,5,5,6,6,7,7,8,8,11,11,16,16],"right_children":[2,4,6,8,10,12,14,16,18,-1,-1,20,-1,-1,-1,-1,22,-1,-1,-1,-1,-1,-1],"split_conditions":[1.4049832E0,5.323784E-1,5.323784E-1,-3.62062E-1,1.5389675E0,1.5389675E0,1.5389675E0,-1.2565024E0,1.5389675E0,-2.6604014E-3,-1.3585363E-3,-3.62062E-1,3.2459195E-3,-1.0564443E-4,1.1823464E-3,1.4327294E-3,1.5389675E0,-1.0520185E-3,2.3551002E-4,2.5213528E-3,9.102199E-4,-3.392584E-5,1.003488E-3],"split_indices":[6,0,0,0,5,5,5,0,5,0,0,0,0,0,0,0,5,0,0,0,0,0,0],"split_type":[0,0,0,0,0,0,0,0,0,0,0,0,0,0,0,0,0,0,0,0,0,0,0],"sum_hessian":[8.09E2,5.23E2,2.86E2,3.38E2,1.85E2,1.93E2,9.3E1,1.78E2,1.6E2,1.37E2,4.8E1,1.05E2,8.8E1,5.8E1,3.5E1,3.3E1,1.45E2,1.24E2,3.6E1,7.2E1,3.3E1,1.12E2,3.3E1],"tree_param":{"num_deleted":"0","num_feature":"41","num_nodes":"23","size_leaf_vector":"1"}},{"base_weights":[1.3113548E-3,-4.3377053E-2,9.021904E-2,4.2783613E-3,-1.0118718E-1,1.2373024E-1,2.8131844E-4,7.161464E-4,-1.6307222E-2,-7.8882195E-2,-2.9367837E-3,3.1561311E-3,2.0443348E-3,-6.998987E-4,6.189223E-4,-1.8721716E-3,-6.952931E-4],"categories":[],"categories_nodes":[],"categories_segments":[],"categories_sizes":[],"default_left":[0,0,0,0,0,0,0,0,0,0,0,0,0,0,0,0,0],"id":29,"left_children":[1,3,5,7,9,11,-1,-1,13,15,-1,-1,-1,-1,-1,-1,-1],"loss_changes":[3.270647E0,1.5193058E0,6.792779E-1,1.95933E-1,2.094214E-1,9.1434E-2,0E0,0E0,1.5543279E-1,8.504617E-2,0E0,0E0,0E0,0E0,0E0,0E0,0E0],"parents":[2147483647,0,0,1,1,2,2,3,3,4,4,5,5,8,8,9,9],"right_children":[2,4,6,8,10,12,-1,-1,14,16,-1,-1,-1,-1,-1,-1,-1],"split_conditions":[1.4049832E0,2.3423158E-1,5.323784E-1,-6.602088E-1,1.4268187E0,-6.602088E-1,2.8131844E-4,7.161464E-4,1.5389675E0,1.5389675E0,-2.9367837E-3,3.1561311E-3,2.0443348E-3,-6.998987E-4,6.189223E-4,-1.8721716E-3,-6.952931E-4],"split_indices":[6,0,0,0,0,0,0,0,5,5,0,0,0,0,0,0,0],"split_type":[0,0,0,0,0,0,0,0,0,0,0,0,0,0,0,0,0],"sum_hessian":[8.21E2,5.45E2,2.76E2,2.97E2,2.48E2,1.9E2,8.6E1,1.21E2,1.76E2,1.69E2,7.9E1,7.1E1,1.19E2,1.29E2,4.7E1,1.24E2,4.5E1],"tree_param":{"num_deleted":"0","num_feature":"41","num_nodes":"17","size_leaf_vector":"1"}},{"base_weights":[4.895371E-4,-5.9413336E-2,5.460978E-2,-1.12900145E-1,-2.7797645E-2,3.043302E-2,1.0846557E-1,-3.1534226E-3,-1.7667331E-3,-5.3118836E-2,6.29828E-4,6.257429E-2,1.3429372E-4,3.0278685E-3,1.5482801E-3,-0E0,-1.30472E-3,9.194115E-4,2.1987646E-3],"categories":[],"categories_nodes":[],"categories_segments":[],"categories_sizes":[],"default_left":[0,0,0,0,0,0,0,0,0,0,0,0,0,0,0,0,0,0,0],"id":30,"left_children":[1,3,5,7,9,11,13,-1,-1,15,-1,17,-1,-1,-1,-1,-1,-1,-1],"loss_changes":[2.6057215E0,6.1670804E-1,5.265169E-1,1.0760093E-1,3.654602E-1,2.1227959E-1,1.2951493E-1,0E0,0E0,1.025708E-1,0E0,6.737018E-2,0E0,0E0,0E0,0E0,0E0,0E0,0E0],"parents":[2147483647,0,0,1,1,2,2,3,3,4,4,5,5,6,6,9,9,11,11],"right_children":[2,4,6,8,10,12,14,-1,-1,16,-1,18,-1,-1,-1,-1,-1,-1,-1],"split_conditions":[-1.3825156E-2,-1.0263717E0,1.5389675E0,-1.6554688E0,1.5389675E0,-6.602088E-1,-6.602088E-1,-3.1534226E-3,-1.7667331E-3,-6.3915215E-2,6.29828E-4,1.5559217E0,1.3429372E-4,3.0278685E-3,1.5482801E-3,-0E0,-1.30472E-3,9.194115E-4,2.1987646E-3],"split_indices":[1,1,5,1,5,0,0,0,0,0,0,1,0,0,0,0,0,0,0],"split_type":[0,0,0,0,0,0,0,0,0,0,0,0,0,0,0,0,0,0,0],"sum_hessian":[8.04E2,3.8E2,4.24E2,1.39E2,2.41E2,2.95E2,1.29E2,4.7E1,9.2E1,1.71E2,7E1,1.22E2,1.73E2,5.2E1,7.7E1,3.3E1,1.38E2,9.3E1,2.9E1],"tree_param":{"num_deleted":"0","num_feature":"41","num_nodes":"19","size_leaf_vector":"1"}},{"base_weights":[1.2636611E-3,-4.4450372E-2,9.07131E-2,-1.174249E-1,-9.059463E-3,2.5839705E-4,1.1817248E-1,-1.5851805E-3,-2.8222564E-3,-8.452844E-4,1.5454906E-2,1.7910331E-3,2.9848074E-3,7.791692E-4,-1.3291698E-4],"categories":[],"categories_nodes":[],"categories_segments":[],"categories_sizes":[],"default_left":[0,0,0,0,0,0,0,0,0,0,0,0,0,0,0],"id":31,"left_children":[1,3,5,7,9,-1,11,-1,-1,-1,13,-1,-1,-1,-1],"loss_changes":[3.3412044E0,1.3662221E0,5.678148E-1,1.15590096E-1,3.0050305E-1,0E0,1.359694E-1,0E0,0E0,0E0,1.1254321E-1,0E0,0E0,0E0,0E0],"parents":[2147483647,0,0,1,1,2,2,3,3,4,4,6,6,10,10],"right_children":[2,4,6,8,10,-1,12,-1,-1,-1,14,-1,-1,-1,-1],"split_conditions":[1.4049832E0,-5.0512E-1,-3.9128336E-1,1.128672E0,3.3966744E-1,2.5839705E-4,5.9729767E-1,-1.5851805E-3,-2.8222564E-3,-8.452844E-4,-6.602088E-1,1.7910331E-3,2.9848074E-3,7.791692E-4,-1.3291698E-4],"split_indices":[6,1,1,0,1,0,1,0,0,0,0,0,0,0,0],"split_type":[0,0,0,0,0,0,0,0,0,0,0,0,0,0,0],"sum_hessian":[8.15E2,5.38E2,2.77E2,1.74E2,3.64E2,7.4E1,2.03E2,6.9E1,1.05E2,1.58E2,2.06E2,1.08E2,9.5E1,1.04E2,1.02E2],"tree_param":{"num_deleted":"0","num_feature":"41","num_nodes":"15","size_leaf_vector":"1"}},{"base_weights":[-0E0,-4.5235142E-2,8.854342E-2,-9.4910115E-2,-0E0,1.1665162E-1,2.1189978E-4,-1.5492449E-3,-3.3522965E-3,-1.976241E-4,9.57895E-4,1.7049327E-3,3.0242293E-3,-3.6860091E-4,9.960505E-4],"categories":[],"categories_nodes":[],"categories_segments":[],"categories_sizes":[],"default_left":[0,0,0,0,0,0,0,0,0,0,0,0,0,0,0],"id":32,"left_children":[1,3,5,7,9,11,13,-1,-1,-1,-1,-1,-1,-1,-1],"loss_changes":[3.2174108E0,1.2134254E0,6.5139294E-1,2.8096437E-1,1.3646021E-1,1.7718673E-1,6.747994E-2,0E0,0E0,0E0,0E0,0E0,0E0,0E0,0E0],"parents":[2147483647,0,0,1,1,2,2,3,3,4,4,5,5,6,6],"right_children":[2,4,6,8,10,12,14,-1,-1,-1,-1,-1,-1,-1,-1],"split_conditions":[1.4049832E0,-9.770476E-2,8.3052516E-1,1.7249656E0,1.2144119E0,6.3923746E-1,-6.4292216E-1,-1.5492449E-3,-3.3522965E-3,-1.976241E-4,9.57895E-4,1.7049327E-3,3.0242293E-3,-3.6860091E-4,9.960505E-4],"split_indices":[6,1,0,0,1,1,1,0,0,0,0,0,0,0,0],"split_type":[0,0,0,0,0,0,0,0,0,0,0,0,0,0,0],"sum_hessian":[8.05E2,5.34E2,2.71E2,2.56E2,2.78E2,2.04E2,6.7E1,2.08E2,4.8E1,2.28E2,5E1,1.09E2,9.5E1,4.6E1,2.1E1],"tree_param":{"num_deleted":"0","num_feature":"41","num_nodes":"15","size_leaf_vector":"1"}},{"base_weights":[3.6897336E-3,-4.016616E-2,8.835172E-2,1.0151703E-2,-8.2657136E-2,1.1459577E-1,1.506543E-2,-6.467328E-4,9.27019E-4,-4.991864E-2,-1.173223E-1,8.971464E-2,2.9212483E-3,7.986724E-4,-5.3088786E-4,5.3803605E-4,-3.2262783E-4,-1.2307022E-3,-0E0,-2.7046523E-3,-1.2471132E-3,2.388584E-3,1.2137354E-3],"categories":[],"categories_nodes":[],"categories_segments":[],"categories_sizes":[],"default_left":[0,0,0,0,0,0,0,0,0,0,0,0,0,0,0,0,0,0,0,0,0,0,0],"id":33,"left_children":[1,3,5,7,9,11,13,15,-1,17,19,21,-1,-1,-1,-1,-1,-1,-1,-1,-1,-1,-1],"loss_changes":[3.094379E0,1.180739E0,5.243151E-1,1.05095245E-1,3.0740023E-1,1.1797953E-1,8.181487E-2,7.749642E-2,0E0,9.034172E-2,1.0174334E-1,6.914532E-2,0E0,0E0,0E0,0E0,0E0,0E0,0E0,0E0,0E0,0E0,0E0],"parents":[2147483647,0,0,1,1,2,2,3,3,4,4,5,5,6,6,7,7,9,9,10,10,11,11],"right_children":[2,4,6,8,10,12,14,16,-1,18,20,22,-1,-1,-1,-1,-1,-1,-1,-1,-1,-1,-1],"split_conditions":[1.4049832E0,-6.3915215E-2,5.323784E-1,1.5389675E0,8.3052516E-1,1.5389675E0,1.4268187E0,-9.583556E-1,9.27019E-4,1.5389675E0,1.5389675E0,-6.602088E-1,2.9212483E-3,7.986724E-4,-5.3088786E-4,5.3803605E-4,-3.2262783E-4,-1.2307022E-3,-0E0,-2.7046523E-3,-1.2471132E-3,2.388584E-3,1.2137354E-3],"split_indices":[6,0,0,5,0,5,0,0,0,5,5,0,0,0,0,0,0,0,0,0,0,0,0],"split_type":[0,0,0,0,0,0,0,0,0,0,0,0,0,0,0,0,0,0,0,0,0,0,0],"sum_hessian":[8.31E2,5.46E2,2.85E2,2.48E2,2.98E2,2.08E2,7.7E1,1.87E2,6.1E1,1.56E2,1.42E2,1.19E2,8.9E1,5.1E1,2.6E1,6.3E1,1.24E2,1.27E2,2.9E1,1.05E2,3.7E1,5.6E1,6.3E1],"tree_param":{"num_deleted":"0","num_feature":"41","num_nodes":"23","size_leaf_vector":"1"}},{"base_weights":[3.125664E-3,-3.922759E-2,8.6466976E-2,-1.0880095E-1,-4.804763E-3,8.147128E-5,1.1508463E-1,-2.9559934E-3,-1.6742186E-3,-2.865149E-2,3.234088E-2,1.768744E-3,2.8611564E-3,-8.371191E-4,1.9460291E-4,1.038713E-3,-0E0],"categories":[],"categories_nodes":[],"categories_segments":[],"categories_sizes":[],"default_left":[0,0,0,0,0,0,0,0,0,0,0,0,0,0,0,0,0],"id":34,"left_children":[1,3,5,7,9,-1,11,-1,-1,13,15,-1,-1,-1,-1,-1,-1],"loss_changes":[2.811401E0,1.2364645E0,6.1245346E-1,1.2554383E-1,3.1202954E-1,0E0,1.04472876E-1,0E0,0E0,1.1566691E-1,7.646567E-2,0E0,0E0,0E0,0E0,0E0,0E0],"parents":[2147483647,0,0,1,1,2,2,3,3,4,4,6,6,9,9,10,10],"right_children":[2,4,6,8,10,-1,12,-1,-1,14,16,-1,-1,-1,-1,-1,-1],"split_conditions":[1.4049832E0,-5.230942E-1,-4.5718876E-1,-1.2959847E0,6.8716866E-1,8.147128E-5,1.5389675E0,-2.9559934E-3,-1.6742186E-3,1.5389675E0,-6.602088E-1,1.768744E-3,2.8611564E-3,-8.371191E-4,1.9460291E-4,1.038713E-3,-0E0],"split_indices":[6,1,1,1,1,0,5,0,0,5,0,0,0,0,0,0,0],"split_type":[0,0,0,0,0,0,0,0,0,0,0,0,0,0,0,0,0],"sum_hessian":[7.94E2,5.25E2,2.69E2,1.72E2,3.53E2,7.1E1,1.98E2,6.5E1,1.07E2,2.18E2,1.35E2,1.04E2,9.4E1,1.66E2,5.2E1,8.1E1,5.4E1],"tree_param":{"num_deleted":"0","num_feature":"41","num_nodes":"17","size_leaf_vector":"1"}},{"base_weights":[9.278551E-4,-7.5574495E-2,3.168481E-2,-2.477723E-3,-5.334071E-2,9.349801E-3,8.231168E-2,-7.203016E-2,-2.806901E-4,-1.1064179E-2,1.1736681E-3,6.400807E-4,2.0672577E-3,-0E0,-1.6266422E-3,1.7061317E-4,-6.6834054E-4],"categories":[],"categories_nodes":[],"categories_segments":[],"categories_sizes":[],"default_left":[0,0,0,0,0,0,0,0,0,0,0,0,0,0,0,0,0],"id":35,"left_children":[1,3,5,-1,7,9,11,13,-1,15,-1,-1,-1,-1,-1,-1,-1],"loss_changes":[1.942603E0,2.1966183E-1,6.536893E-1,0E0,1.0473877E-1,4.2474177E-1,1.6315663E-1,8.546227E-2,0E0,1.3112628E-1,0E0,0E0,0E0,0E0,0E0,0E0,0E0],"parents":[2147483647,0,0,1,1,2,2,4,4,5,5,6,6,7,7,9,9],"right_children":[2,4,6,-1,8,10,12,14,-1,16,-1,-1,-1,-1,-1,-1,-1],"split_conditions":[-5.0512E-1,-1.3918471E0,1.5389675E0,-2.477723E-3,1.5389675E0,8.3695364E-1,1.9587384E-1,-6.3915215E-2,-2.806901E-4,-6.3915215E-2,1.1736681E-3,6.400807E-4,2.0672577E-3,-0E0,-1.6266422E-3,1.7061317E-4,-6.6834054E-4],"split_indices":[1,1,5,0,5,1,1,0,0,0,0,0,0,0,0,0,0],"split_type":[0,0,0,0,0,0,0,0,0,0,0,0,0,0,0,0,0],"sum_hessian":[8.29E2,2.36E2,5.93E2,7.2E1,1.64E2,4.14E2,1.79E2,1.08E2,5.6E1,2.9E2,1.24E2,5.5E1,1.24E2,1E1,9.8E1,1.5E2,1.4E2],"tree_param":{"num_deleted":"0","num_feature":"41","num_nodes":"17","size_leaf_vector":"1"}},{"base_weights":[8.7575347E-4,-4.3521207E-2,8.4882304E-2,-1.20054595E-1,-1.4001077E-2,2.7067762E-2,2.5500269E-3,-1.9365937E-3,-3.1790833E-3,-9.1021345E-4,1.4693264E-2,-5.134947E-4,4.689585E-2,9.1235986E-4,-0E0,3.455333E-4,1.6399227E-3],"categories":[],"categories_nodes":[],"categories_segments":[],"categories_sizes":[],"default_left":[0,0,0,0,0,0,0,0,0,0,0,0,0,0,0,0,0],"id":36,"left_children":[1,3,5,7,9,11,-1,-1,-1,-1,13,-1,15,-1,-1,-1,-1],"loss_changes":[2.9802034E0,1.1501856E0,6.502484E-1,8.211589E-2,3.4558973E-1,1.2826703E-1,0E0,0E0,0E0,0E0,8.666697E-2,0E0,7.39992E-2,0E0,0E0,0E0,0E0],"parents":[2147483647,0,0,1,1,2,2,3,3,4,4,5,5,10,10,12,12],"right_children":[2,4,6,8,10,12,-1,-1,-1,-1,14,-1,16,-1,-1,-1,-1],"split_conditions":[1.4049832E0,-7.9869854E-1,7.604585E-2,1.7249656E0,3.2169324E-1,-1.0083976E0,2.5500269E-3,-1.9365937E-3,-3.1790833E-3,-9.1021345E-4,-9.583556E-1,-5.134947E-4,1.5389675E0,9.1235986E-4,-0E0,3.455333E-4,1.6399227E-3],"split_indices":[6,1,1,0,1,1,0,0,0,0,0,0,5,0,0,0,0],"split_type":[0,0,0,0,0,0,0,0,0,0,0,0,0,0,0,0,0],"sum_hessian":[7.97E2,5.2E2,2.77E2,1.43E2,3.77E2,1.19E2,1.58E2,9.2E1,5.1E1,1.83E2,1.94E2,3E1,8.9E1,6.2E1,1.32E2,5.1E1,3.8E1],"tree_param":{"num_deleted":"0","num_feature":"41","num_nodes":"17","size_leaf_vector":"1"}},{"base_weights":[-0E0,-4.2110145E-2,8.253899E-2,-7.7828534E-2,-4.8933243E-3,2.917294E-4,1.970087E-3,-2.2773908E-3,-5.755685E-2,-0E0,-1.7296239E-3,-7.966386E-4,-1.771015E-3,-2.2701651E-4,2.3009522E-2,7.811477E-4,-6.400009E-4],"categories":[],"categories_nodes":[],"categories_segments":[],"categories_sizes":[],"default_left":[0,0,0,0,0,0,0,0,0,0,0,0,0,0,0,0,0],"id":37,"left_children":[1,3,5,7,9,-1,-1,-1,11,13,-1,-1,-1,-1,15,-1,-1],"loss_changes":[2.8275976E0,6.9997984E-1,2.741959E-1,1.6599095E-1,1.2036918E-1,0E0,0E0,0E0,7.353395E-2,6.68609E-2,0E0,0E0,0E0,0E0,7.76785E-2,0E0,0E0],"parents":[2147483647,0,0,1,1,2,2,3,3,4,4,8,8,9,9,14,14],"right_children":[2,4,6,8,10,-1,-1,-1,12,14,-1,-1,-1,-1,16,-1,-1],"split_conditions":[1.4049832E0,-3.492943E-1,-4.9859664E-1,-5.273149E-1,1E0,2.917294E-4,1.970087E-3,-2.2773908E-3,-3.4573346E-1,2.0522848E-1,-1.7296239E-3,-7.966386E-4,-1.771015E-3,-2.2701651E-4,1.6734258E0,7.811477E-4,-6.400009E-4],"split_indices":[6,4,4,4,18,0,0,0,2,4,0,0,0,0,2,0,0],"split_type":[0,0,0,0,0,0,0,0,0,0,0,0,0,0,0,0,0],"sum_hessian":[8.13E2,5.38E2,2.75E2,2.72E2,2.66E2,5.4E1,2.21E2,9.5E1,1.77E2,2.49E2,1.7E1,1.16E2,6.1E1,1.62E2,8.7E1,7E1,1.7E1],"tree_param":{"num_deleted":"0","num_feature":"41","num_nodes":"17","size_leaf_vector":"1"}},{"base_weights":[-8.316494E-5,3.2569572E-2,-6.594723E-2,1.2754067E-2,8.135574E-2,-1.2155962E-1,-3.616538E-2,4.892664E-2,-1.9452524E-4,1.1771355E-3,2.3489E-3,-2.8770242E-3,-1.031677E-3,-1.2026967E-3,2.773659E-4,5.0887826E-4,1.5164226E-3],"categories":[],"categories_nodes":[],"categories_segments":[],"categories_sizes":[],"default_left":[0,0,0,0,0,0,0,0,0,0,0,0,0,0,0,0,0],"id":38,"left_children":[1,3,5,7,9,11,13,15,-1,-1,-1,-1,-1,-1,-1,-1,-1],"loss_changes":[1.7460517E0,5.037621E-1,4.181602E-1,3.2084852E-1,9.166217E-2,1.0601711E-1,2.2084783E-1,7.645354E-2,0E0,0E0,0E0,0E0,0E0,0E0,0E0,0E0,0E0],"parents":[2147483647,0,0,1,1,2,2,3,3,4,4,5,5,6,6,7,7],"right_children":[2,4,6,8,10,12,14,16,-1,-1,-1,-1,-1,-1,-1,-1,-1],"split_conditions":[5.323784E-1,1.5389675E0,-1.194131E0,-6.602088E-1,7.4708265E-1,1.5389675E0,1.5389675E0,1.0646268E0,-1.9452524E-4,1.1771355E-3,2.3489E-3,-2.8770242E-3,-1.031677E-3,-1.2026967E-3,2.773659E-4,5.0887826E-4,1.5164226E-3],"split_indices":[0,5,1,0,1,5,5,1,0,0,0,0,0,0,0,0,0],"split_type":[0,0,0,0,0,0,0,0,0,0,0,0,0,0,0,0,0],"sum_hessian":[8.09E2,5.39E2,2.7E2,3.86E2,1.53E2,9.2E1,1.78E2,1.51E2,2.35E2,9.7E1,5.6E1,6.8E1,2.4E1,1.23E2,5.5E1,8.4E1,6.7E1],"tree_param":{"num_deleted":"0","num_feature":"41","num_nodes":"17","size_leaf_vector":"1"}},{"base_weights":[3.1112954E-3,-4.664339E-2,4.6195958E-2,-7.1699984E-2,8.633831E-3,2.0417852E-2,1.9657144E-3,-9.172365E-4,-2.1664945E-3,8.365841E-4,-4.963314E-4,1.055112E-3,-8.586229E-5],"categories":[],"categories_nodes":[],"categories_segments":[],"categories_sizes":[],"default_left":[0,0,0,0,0,0,0,0,0,0,0,0,0],"id":39,"left_children":[1,3,5,7,9,11,-1,-1,-1,-1,-1,-1,-1],"loss_changes":[1.6720222E0,5.102367E-1,5.401395E-1,2.0770633E-1,1.24822095E-1,2.3426837E-1,0E0,0E0,0E0,0E0,0E0,0E0,0E0],"parents":[2147483647,0,0,1,1,2,2,3,3,4,4,5,5],"right_children":[2,4,6,8,10,12,-1,-1,-1,-1,-1,-1,-1],"split_conditions":[1.6131844E-2,1.5389675E0,1.5389675E0,1.128672E0,8.3052516E-1,-6.602088E-1,1.9657144E-3,-9.172365E-4,-2.1664945E-3,8.365841E-4,-4.963314E-4,1.055112E-3,-8.586229E-5],"split_indices":[1,5,5,0,0,0,0,0,0,0,0,0,0],"split_type":[0,0,0,0,0,0,0,0,0,0,0,0,0],"sum_hessian":[7.8E2,3.6E2,4.2E2,2.5E2,1.1E2,2.83E2,1.37E2,1.49E2,1.01E2,5.8E1,5.2E1,1.26E2,1.57E2],"tree_param":{"num_deleted":"0","num_feature":"41","num_nodes":"13","size_leaf_vector":"1"}},{"base_weights":[8.569511E-4,-3.6412176E-2,7.9986304E-2,-1.0135245E-1,-6.6461978E-3,2.4472034E-4,2.0193714E-3,-2.3457787E-3,-1.1428392E-3,-1.9268416E-2,5.958736E-4,-5.760657E-4,2.0401874E-4],"categories":[],"categories_nodes":[],"categories_segments":[],"categories_sizes":[],"default_left":[0,0,0,0,0,0,0,0,0,0,0,0,0],"id":40,"left_children":[1,3,5,7,9,-1,-1,-1,-1,11,-1,-1,-1],"loss_changes":[2.3054087E0,1.0007898E0,3.328848E-1,8.213532E-2,1.6524795E-1,0E0,0E0,0E0,0E0,7.991503E-2,0E0,0E0,0E0],"parents":[2147483647,0,0,1,1,2,2,3,3,4,4,9,9],"right_children":[2,4,6,8,10,-1,-1,-1,-1,12,-1,-1,-1],"split_conditions":[1.4049832E0,-5.710254E-1,-4.5718876E-1,1.5389675E0,9.0885043E-1,2.4472034E-4,2.0193714E-3,-2.3457787E-3,-1.1428392E-3,1.5389675E0,5.958736E-4,-5.760657E-4,2.0401874E-4],"split_indices":[6,1,1,5,1,0,0,0,0,5,0,0,0],"split_type":[0,0,0,0,0,0,0,0,0,0,0,0,0],"sum_hessian":[7.79E2,5.28E2,2.51E2,1.64E2,3.64E2,6.1E1,1.9E2,1.18E2,4.6E1,2.74E2,9E1,2.12E2,6.2E1],"tree_param":{"num_deleted":"0","num_feature":"41","num_nodes":"13","size_leaf_vector":"1"}},{"base_weights":[-1.2464726E-3,-3.8839836E-2,7.2535805E-2,-5.9511918E-3,-9.3551435E-2,1.0001341E-1,2.6453164E-4,-7.645979E-4,1.0196293E-2,-2.3391503E-3,-1.3142728E-3,1.5067125E-3,2.534732E-3,7.560469E-4,-3.7961117E-6],"categories":[],"categories_nodes":[],"categories_segments":[],"categories_sizes":[],"default_left":[0,0,0,0,0,0,0,0,0,0,0,0,0,0,0],"id":41,"left_children":[1,3,5,7,9,11,-1,-1,13,-1,-1,-1,-1,-1,-1],"loss_changes":[2.1851082E0,9.264016E-1,4.1123855E-1,1.7676353E-1,9.2818975E-2,8.0485344E-2,0E0,0E0,6.867167E-2,0E0,0E0,0E0,0E0,0E0,0E0],"parents":[2147483647,0,0,1,1,2,2,3,3,4,4,5,5,8,8],"right_children":[2,4,6,8,10,12,-1,-1,14,-1,-1,-1,-1,-1,-1],"split_conditions":[1.4049832E0,5.323784E-1,5.323784E-1,2.2583085E-1,-9.964148E-1,1.5389675E0,2.6453164E-4,-7.645979E-4,-9.583556E-1,-2.3391503E-3,-1.3142728E-3,1.5067125E-3,2.534732E-3,7.560469E-4,-3.7961117E-6],"split_indices":[6,0,0,1,1,5,0,0,0,0,0,0,0,0,0],"split_type":[0,0,0,0,0,0,0,0,0,0,0,0,0,0,0],"sum_hessian":[7.9E2,5.25E2,2.65E2,3.3E2,1.95E2,1.79E2,8.6E1,1.14E2,2.16E2,1.03E2,9.2E1,9.6E1,8.3E1,6.4E1,1.52E2],"tree_param":{"num_deleted":"0","num_feature":"41","num_nodes":"15","size_leaf_vector":"1"}},{"base_weights":[-4.161297E-4,-3.858933E-2,7.771751E-2,-1.0837823E-2,-1.0340326E-1,1.2749438E-4,1.0253071E-1,-3.76542E-2,1.23604415E-2,-2.372782E-3,-1.051775E-3,1.569903E-3,2.5683166E-3,-1.0540823E-3,8.0906524E-5,6.2251044E-4,-1.1613564E-4],"categories":[],"categories_nodes":[],"categories_segments":[],"categories_sizes":[],"default_left":[0,0,0,0,0,0,0,0,0,0,0,0,0,0,0,0,0],"id":42,"left_children":[1,3,5,7,9,-1,11,13,15,-1,-1,-1,-1,-1,-1,-1,-1],"loss_changes":[2.3700128E0,9.4489956E-1,4.4033575E-1,2.398129E-1,9.003115E-2,0E0,8.0374956E-2,1.205011E-1,7.2236024E-2,0E0,0E0,0E0,0E0,0E0,0E0,0E0,0E0],"parents":[2147483647,0,0,1,1,2,2,3,3,4,4,6,6,7,7,8,8],"right_children":[2,4,6,8,10,-1,12,14,16,-1,-1,-1,-1,-1,-1,-1,-1],"split_conditions":[1.4049832E0,8.3052516E-1,-4.3322316E-1,3.5764164E-1,1.5389675E0,1.2749438E-4,1.5389675E0,1.5389675E0,-6.602088E-1,-2.372782E-3,-1.051775E-3,1.569903E-3,2.5683166E-3,-1.0540823E-3,8.0906524E-5,6.2251044E-4,-1.1613564E-4],"split_indices":[6,0,1,1,5,0,5,5,0,0,0,0,0,0,0,0,0],"split_type":[0,0,0,0,0,0,0,0,0,0,0,0,0,0,0,0,0],"sum_hessian":[7.97E2,5.37E2,2.6E2,3.78E2,1.59E2,6.9E1,1.91E2,1.79E2,1.99E2,1.2E2,3.9E1,1.02E2,8.9E1,1.35E2,4.4E1,1.03E2,9.6E1],"tree_param":{"num_deleted":"0","num_feature":"41","num_nodes":"17","size_leaf_vector":"1"}},{"base_weights":[-0E0,-3.4828603E-2,7.1163096E-2,-9.998409E-4,-9.3244314E-2,2.4912376E-2,2.2118052E-3,-3.460994E-4,7.158581E-4,-3.1956607E-3,-1.6287545E-3,8.4088685E-4,-4.144315E-4],"categories":[],"categories_nodes":[],"categories_segments":[],"categories_sizes":[],"default_left":[0,0,0,0,0,0,0,0,0,0,0,0,0],"id":43,"left_children":[1,3,5,7,9,11,-1,-1,-1,-1,-1,-1,-1],"loss_changes":[1.9533861E0,1.0280685E0,4.4488502E-1,1.9800635E-1,1.0772824E-1,9.8003015E-2,0E0,0E0,0E0,0E0,0E0,0E0,0E0],"parents":[2147483647,0,0,1,1,2,2,3,3,4,4,5,5],"right_children":[2,4,6,8,10,12,-1,-1,-1,-1,-1,-1,-1],"split_conditions":[1.4049832E0,5.323784E-1,4.6088845E-2,8.7889344E-1,-1.793271E0,1.4268187E0,2.2118052E-3,-3.460994E-4,7.158581E-4,-3.1956607E-3,-1.6287545E-3,8.4088685E-4,-4.144315E-4],"split_indices":[6,0,1,1,1,0,0,0,0,0,0,0,0],"split_type":[0,0,0,0,0,0,0,0,0,0,0,0,0],"sum_hessian":[7.88E2,5.29E2,2.59E2,3.37E2,1.92E2,1.21E2,1.38E2,2.37E2,1E2,2.7E1,1.65E2,9.1E1,3E1],"tree_param":{"num_deleted":"0","num_feature":"41","num_nodes":"13","size_leaf_vector":"1"}},{"base_weights":[-0E0,-3.7892975E-2,7.503913E-2,-9.025236E-2,-6.1731343E-3,-0E0,9.644545E-2,-2.904949E-3,-1.5055075E-3,-4.3624832E-4,5.230583E-4,2.4671573E-3,1.3675623E-3],"categories":[],"categories_nodes":[],"categories_segments":[],"categories_sizes":[],"default_left":[0,0,0,0,0,0,0,0,0,0,0,0,0],"id":44,"left_children":[1,3,5,7,9,-1,11,-1,-1,-1,-1,-1,-1],"loss_changes":[2.2560318E0,8.592048E-1,4.2768514E-1,1.22421026E-1,1.6585088E-1,0E0,1.2044883E-1,0E0,0E0,0E0,0E0,0E0,0E0],"parents":[2147483647,0,0,1,1,2,2,3,3,4,4,6,6],"right_children":[2,4,6,8,10,-1,12,-1,-1,-1,-1,-1,-1],"split_conditions":[1.4049832E0,-3.9128336E-1,-5.530512E-1,-1.4517611E0,8.5492784E-1,-0E0,-3.62062E-1,-2.904949E-3,-1.5055075E-3,-4.3624832E-4,5.230583E-4,2.4671573E-3,1.3675623E-3],"split_indices":[6,1,1,1,1,0,0,0,0,0,0,0,0],"split_type":[0,0,0,0,0,0,0,0,0,0,0,0,0],"sum_hessian":[7.94E2,5.28E2,2.66E2,1.97E2,3.31E2,5.9E1,2.07E2,4E1,1.57E2,2.27E2,1.04E2,1.03E2,1.04E2],"tree_param":{"num_deleted":"0","num_feature":"41","num_nodes":"13","size_leaf_vector":"1"}},{"base_weights":[-3.2985792E-3,-3.8697366E-2,7.0019305E-2,-5.975673E-3,-9.276155E-2,2.0947516E-2,2.1032968E-3,-1.932669E-2,6.965979E-4,-2.511986E-3,-1.3692911E-3,-4.2474352E-5,9.476641E-4,-5.847881E-4,2.8055694E-4],"categories":[],"categories_nodes":[],"categories_segments":[],"categories_sizes":[],"default_left":[0,0,0,0,0,0,0,0,0,0,0,0,0,0,0],"id":45,"left_children":[1,3,5,7,9,11,-1,13,-1,-1,-1,-1,-1,-1,-1],"loss_changes":[2.1121168E0,9.583895E-1,4.2955554E-1,1.8536757E-1,1.2834477E-1,7.637547E-2,0E0,8.952511E-2,0E0,0E0,0E0,0E0,0E0,0E0,0E0],"parents":[2147483647,0,0,1,1,2,2,3,3,4,4,5,5,7,7],"right_children":[2,4,6,8,10,12,-1,14,-1,-1,-1,-1,-1,-1,-1],"split_conditions":[1.4049832E0,5.323784E-1,6.406304E-2,9.627731E-1,-1.194131E0,-6.4292216E-1,2.1032968E-3,1.5389675E0,6.965979E-4,-2.511986E-3,-1.3692911E-3,-4.2474352E-5,9.476641E-4,-5.847881E-4,2.8055694E-4],"split_indices":[6,0,1,1,1,1,0,5,0,0,0,0,0,0,0],"split_type":[0,0,0,0,0,0,0,0,0,0,0,0,0,0,0],"sum_hessian":[8.16E2,5.52E2,2.64E2,3.46E2,2.06E2,1.12E2,1.52E2,2.64E2,8.2E1,8.5E1,1.21E2,5.6E1,5.6E1,2.08E2,5.6E1],"tree_param":{"num_deleted":"0","num_feature":"41","num_nodes":"15","size_leaf_vector":"1"}},{"base_weights":[-1.8338092E-3,-6.615541E-2,2.7453985E-2,-8.4342755E-2,-3.173764E-4,6.936933E-3,7.971822E-2,-1.1843804E-3,-2.3200582E-3,3.2303248E-2,-4.1634482E-4,2.4605915E-3,1.1590484E-3,-1.0607453E-5,8.3422783E-4],"categories":[],"categories_nodes":[],"categories_segments":[],"categories_sizes":[],"default_left":[0,0,0,0,0,0,0,0,0,0,0,0,0,0,0],"id":46,"left_children":[1,3,5,7,-1,9,11,-1,-1,13,-1,-1,-1,-1,-1],"loss_changes":[1.4765482E0,2.0670092E-1,5.56688E-1,1.0901165E-1,0E0,2.734967E-1,1.0619551E-1,0E0,0E0,7.034674E-2,0E0,0E0,0E0,0E0,0E0],"parents":[2147483647,0,0,1,1,2,2,3,3,5,5,6,6,9,9],"right_children":[2,4,6,8,-1,10,12,-1,-1,14,-1,-1,-1,-1,-1],"split_conditions":[-5.0512E-1,1.5389675E0,1.5389675E0,1.4268187E0,-3.173764E-4,-3.62062E-1,-6.602088E-1,-1.1843804E-3,-2.3200582E-3,2.6177925E-1,-4.1634482E-4,2.4605915E-3,1.1590484E-3,-1.0607453E-5,8.3422783E-4],"split_indices":[1,5,5,0,0,0,0,0,0,1,0,0,0,0,0],"split_type":[0,0,0,0,0,0,0,0,0,0,0,0,0,0,0],"sum_hessian":[7.8E2,2.46E2,5.34E2,1.78E2,6.8E1,3.86E2,1.48E2,1.02E2,7.6E1,2.05E2,1.81E2,4.7E1,1.01E2,4.1E1,1.64E2],"tree_param":{"num_deleted":"0","num_feature":"41","num_nodes":"15","size_leaf_vector":"1"}},{"base_weights":[-1.9463968E-3,-3.4895632E-2,6.801054E-2,1.7032496E-3,-7.846726E-2,9.158411E-2,1.00649325E-2,5.977747E-4,-2.579872E-4,-1.0328E-3,-2.2032796E-3,1.9505679E-3,-0E0,-2.8451794E-4,1.0261001E-3],"categories":[],"categories_nodes":[],"categories_segments":[],"categories_sizes":[],"default_left":[0,0,0,0,0,0,0,0,0,0,0,0,0,0,0],"id":47,"left_children":[1,3,5,7,9,11,13,-1,-1,-1,-1,-1,-1,-1,-1],"loss_changes":[1.8425953E0,8.864165E-1,3.2964444E-1,1.2409223E-1,1.8390465E-1,8.1031084E-2,8.268972E-2,0E0,0E0,0E0,0E0,0E0,0E0,0E0,0E0],"parents":[2147483647,0,0,1,1,2,2,3,3,4,4,5,5,6,6],"right_children":[2,4,6,8,10,12,14,-1,-1,-1,-1,-1,-1,-1,-1],"split_conditions":[1.4049832E0,2.3423158E-1,5.323784E-1,-6.602088E-1,1.128672E0,1.8669958E0,1.5389675E0,5.977747E-4,-2.579872E-4,-1.0328E-3,-2.2032796E-3,1.9505679E-3,-0E0,-2.8451794E-4,1.0261001E-3],"split_indices":[6,0,0,0,0,2,5,0,0,0,0,0,0,0,0],"split_type":[0,0,0,0,0,0,0,0,0,0,0,0,0,0,0],"sum_hessian":[8.02E2,5.47E2,2.55E2,2.95E2,2.52E2,1.79E2,7.6E1,1.05E2,1.9E2,1.39E2,1.13E2,1.67E2,1.2E1,4.5E1,3.1E1],"tree_param":{"num_deleted":"0","num_feature":"41","num_nodes":"15","size_leaf_vector":"1"}},{"base_weights":[-1.950607E-3,-3.7250094E-2,6.889996E-2,-7.1863696E-2,2.3483236E-3,-1.3466603E-4,9.427814E-2,-8.591899E-2,-4.0068617E-4,-2.3452999E-4,5.744434E-4,2.882117E-3,1.5343837E-3,-2.2421435E-3,-1.1958745E-3],"categories":[],"categories_nodes":[],"categories_segments":[],"categories_sizes":[],"default_left":[0,0,0,0,0,0,0,0,0,0,0,0,0,0,0],"id":48,"left_children":[1,3,5,7,9,-1,11,13,-1,-1,-1,-1,-1,-1,-1],"loss_changes":[1.8874851E0,7.077123E-1,4.9590075E-1,1.795398E-1,8.967003E-2,0E0,1.2519169E-1,1.1288202E-1,0E0,0E0,0E0,0E0,0E0,0E0,0E0],"parents":[2147483647,0,0,1,1,2,2,3,3,4,4,6,6,7,7],"right_children":[2,4,6,8,10,-1,12,14,-1,-1,-1,-1,-1,-1,-1],"split_conditions":[1.4049832E0,1.00011446E-1,-4.5718876E-1,1.5389675E0,9.0885043E-1,-1.3466603E-4,-9.583556E-1,-7.9869854E-1,-4.0068617E-4,-2.3452999E-4,5.744434E-4,2.882117E-3,1.5343837E-3,-2.2421435E-3,-1.1958745E-3],"split_indices":[6,1,1,5,1,0,0,1,0,0,0,0,0,0,0],"split_type":[0,0,0,0,0,0,0,0,0,0,0,0,0,0,0],"sum_hessian":[7.57E2,5.07E2,2.5E2,2.73E2,2.34E2,6.1E1,1.89E2,2.12E2,6.1E1,1.48E2,8.6E1,4.7E1,1.42E2,1.03E2,1.09E2],"tree_param":{"num_deleted":"0","num_feature":"41","num_nodes":"15","size_leaf_vector":"1"}},{"base_weights":[-3.2376547E-4,-3.358465E-2,6.58854E-2,-8.0439486E-2,-3.7132695E-3,3.974638E-4,9.544742E-2,-2.0988113E-3,-1.0440955E-3,-2.5240114E-4,9.59723E-4,1.3600412E-3,2.406514E-3],"categories":[],"categories_nodes":[],"categories_segments":[],"categories_sizes":[],"default_left":[0,0,0,0,0,0,0,0,0,0,0,0,0],"id":49,"left_children":[1,3,5,7,9,-1,11,-1,-1,-1,-1,-1,-1],"loss_changes":[1.7844785E0,7.445348E-1,3.4636223E-1,1.1502099E-1,1.4663346E-1,0E0,7.5473785E-2,0E0,0E0,0E0,0E0,0E0,0E0],"parents":[2147483647,0,0,1,1,2,2,3,3,4,4,6,6],"right_children":[2,4,6,8,10,-1,12,-1,-1,-1,-1,-1,-1],"split_conditions":[1.4049832E0,-3.4934357E-1,-7.3739156E-2,-1.0263717E0,1.3342398E0,3.974638E-4,6.9915146E-1,-2.0988113E-3,-1.0440955E-3,-2.5240114E-4,9.59723E-4,1.3600412E-3,2.406514E-3],"split_indices":[6,1,1,1,1,0,1,0,0,0,0,0,0],"split_type":[0,0,0,0,0,0,0,0,0,0,0,0,0],"sum_hessian":[8.13E2,5.43E2,2.7E2,2.09E2,3.34E2,1.08E2,1.62E2,1.09E2,1E2,2.88E2,4.6E1,8E1,8.2E1],"tree_param":{"num_deleted":"0","num_feature":"41","num_nodes":"13","size_leaf_vector":"1"}},{"base_weights":[1.7537596E-3,-3.1510986E-2,6.467746E-2,-7.9409175E-2,-7.79222E-3,-0E0,8.208986E-2,-1.8770192E-3,-8.116444E-4,-6.4253545E-4,1.4564225E-4,1.7288935E-3,-0E0],"categories":[],"categories_nodes":[],"categories_segments":[],"categories_sizes":[],"default_left":[0,0,0,0,0,0,0,0,0,0,0,0,0],"id":50,"left_children":[1,3,5,7,9,-1,11,-1,-1,-1,-1,-1,-1],"loss_changes":[1.6408848E0,5.622428E-1,2.9755723E-1,6.740856E-2,1.2995383E-1,0E0,7.5822115E-2,0E0,0E0,0E0,0E0,0E0,0E0],"parents":[2147483647,0,0,1,1,2,2,3,3,4,4,6,6],"right_children":[2,4,6,8,10,-1,12,-1,-1,-1,-1,-1,-1],"split_conditions":[1.4049832E0,-5.230942E-1,-5.710254E-1,1.5389675E0,3.0971044E-1,-0E0,1E0,-1.8770192E-3,-8.116444E-4,-6.4253545E-4,1.4564225E-4,1.7288935E-3,-0E0],"split_indices":[6,1,1,5,1,0,18,0,0,0,0,0,0],"split_type":[0,0,0,0,0,0,0,0,0,0,0,0,0],"sum_hessian":[7.81E2,5.09E2,2.72E2,1.66E2,3.43E2,5.9E1,2.13E2,1.18E2,4.8E1,1.36E2,2.07E2,2.03E2,1E1],"tree_param":{"num_deleted":"0","num_feature":"41","num_nodes":"13","size_leaf_vector":"1"}},{"base_weights":[-9.715806E-4,-3.4005195E-2,6.0410082E-2,-7.384899E-2,-3.1696311E-3,8.858521E-2,7.81603E-5,-9.81916E-4,-1.9449567E-3,-2.3710936E-4,9.946559E-4,1.3966168E-3,2.4774899E-3],"categories":[],"categories_nodes":[],"categories_segments":[],"categories_sizes":[],"default_left":[0,0,0,0,0,0,0,0,0,0,0,0,0],"id":51,"left_children":[1,3,5,7,9,11,-1,-1,-1,-1,-1,-1,-1],"loss_changes":[1.6233996E0,6.296418E-1,4.2722523E-1,1.0345459E-1,1.2939106E-1,8.619249E-2,0E0,0E0,0E0,0E0,0E0,0E0,0E0],"parents":[2147483647,0,0,1,1,2,2,3,3,4,4,5,5],"right_children":[2,4,6,8,10,12,-1,-1,-1,-1,-1,-1,-1],"split_conditions":[1.4049832E0,-2.3550697E-1,5.323784E-1,1.128672E0,1.3701882E0,9.627731E-1,7.81603E-5,-9.81916E-4,-1.9449567E-3,-2.3710936E-4,9.946559E-4,1.3966168E-3,2.4774899E-3],"split_indices":[6,1,0,0,1,1,0,0,0,0,0,0,0],"split_type":[0,0,0,0,0,0,0,0,0,0,0,0,0],"sum_hessian":[8.03E2,5.24E2,2.79E2,2.26E2,2.98E2,1.84E2,9.5E1,1.13E2,1.13E2,2.59E2,3.9E1,1.23E2,6.1E1],"tree_param":{"num_deleted":"0","num_feature":"41","num_nodes":"13","size_leaf_vector":"1"}},{"base_weights":[-1.2709716E-4,-3.2772776E-2,6.262145E-2,-4.477483E-3,-8.020211E-2,9.011555E-2,3.5244873E-4,-1.500746E-2,6.3967425E-4,-1.2670431E-3,-2.5100147E-3,1.3425585E-3,2.3915851E-3,4.3116353E-5,-7.085452E-4],"categories":[],"categories_nodes":[],"categories_segments":[],"categories_sizes":[],"default_left":[0,0,0,0,0,0,0,0,0,0,0,0,0,0,0],"id":52,"left_children":[1,3,5,7,9,11,-1,13,-1,-1,-1,-1,-1,-1,-1],"loss_changes":[1.5923631E0,6.755876E-1,3.083017E-1,1.21469855E-1,1.1056292E-1,7.514262E-2,0E0,9.551117E-2,0E0,0E0,0E0,0E0,0E0,0E0,0E0],"parents":[2147483647,0,0,1,1,2,2,3,3,4,4,5,5,7,7],"right_children":[2,4,6,8,10,12,-1,14,-1,-1,-1,-1,-1,-1,-1],"split_conditions":[1.4049832E0,5.323784E-1,2.3423158E-1,1.5389675E0,1.7249656E0,1.5389675E0,3.5244873E-4,-3.62062E-1,6.3967425E-4,-1.2670431E-3,-2.5100147E-3,1.3425585E-3,2.3915851E-3,4.3116353E-5,-7.085452E-4],"split_indices":[6,0,0,5,0,5,0,0,0,0,0,0,0,0,0],"split_type":[0,0,0,0,0,0,0,0,0,0,0,0,0,0,0],"sum_hessian":[7.8E2,5.15E2,2.65E2,3.25E2,1.9E2,1.62E2,1.03E2,2.56E2,6.9E1,1.41E2,4.9E1,9.4E1,6.8E1,1.34E2,1.22E2],"tree_param":{"num_deleted":"0","num_feature":"41","num_nodes":"15","size_leaf_vector":"1"}},{"base_weights":[-0E0,-3.0662406E-2,6.36466E-2,-6.24759E-2,6.941672E-3,8.256743E-2,-0E0,-8.032125E-4,-1.8952508E-3,-1.9184756E-5,8.407998E-4,1.1481589E-3,2.2258924E-3],"categories":[],"categories_nodes":[],"categories_segments":[],"categories_sizes":[],"default_left":[0,0,0,0,0,0,0,0,0,0,0,0,0],"id":53,"left_children":[1,3,5,7,9,11,-1,-1,-1,-1,-1,-1,-1],"loss_changes":[1.5531726E0,6.5145266E-1,3.2114327E-1,1.8585134E-1,7.475732E-2,1.138134E-1,0E0,0E0,0E0,0E0,0E0,0E0,0E0],"parents":[2147483647,0,0,1,1,2,2,3,3,4,4,5,5],"right_children":[2,4,6,8,10,12,-1,-1,-1,-1,-1,-1,-1],"split_conditions":[1.4049832E0,1.5393405E-1,8.3052516E-1,1.128672E0,1.2383775E0,5.9729767E-1,-0E0,-8.032125E-4,-1.8952508E-3,-1.9184756E-5,8.407998E-4,1.1481589E-3,2.2258924E-3],"split_indices":[6,1,0,0,1,1,0,0,0,0,0,0,0],"split_type":[0,0,0,0,0,0,0,0,0,0,0,0,0],"sum_hessian":[7.95E2,5.36E2,2.59E2,2.93E2,2.43E2,2.01E2,5.8E1,1.76E2,1.17E2,1.94E2,4.9E1,1.1E2,9.1E1],"tree_param":{"num_deleted":"0","num_feature":"41","num_nodes":"13","size_leaf_vector":"1"}},{"base_weights":[-2.138126E-4,-3.083631E-2,5.8266755E-2,1.6220356E-4,-5.9670888E-2,8.011137E-2,1.9204311E-4,-7.07223E-4,-1.672324E-3,2.495269E-3,1.2745806E-3],"categories":[],"categories_nodes":[],"categories_segments":[],"categories_sizes":[],"default_left":[0,0,0,0,0,0,0,0,0,0,0],"id":54,"left_children":[1,3,5,-1,7,9,-1,-1,-1,-1,-1],"loss_changes":[1.3918366E0,5.8649415E-1,2.6639467E-1,0E0,1.5093327E-1,9.8011255E-2,0E0,0E0,0E0,0E0,0E0],"parents":[2147483647,0,0,1,1,2,2,4,4,5,5],"right_children":[2,4,6,-1,8,10,-1,-1,-1,-1,-1],"split_conditions":[1.4049832E0,-6.3915215E-2,5.323784E-1,1.6220356E-4,8.3052516E-1,-9.583556E-1,1.9204311E-4,-7.07223E-4,-1.672324E-3,2.495269E-3,1.2745806E-3],"split_indices":[6,0,0,0,0,0,0,0,0,0,0],"split_type":[0,0,0,0,0,0,0,0,0,0,0],"sum_hessian":[7.8E2,5.14E2,2.66E2,2.16E2,2.98E2,1.81E2,8.5E1,1.51E2,1.47E2,4.6E1,1.35E2],"tree_param":{"num_deleted":"0","num_feature":"41","num_nodes":"11","size_leaf_vector":"1"}},{"base_weights":[-0E0,-3.0367082E-2,5.6751944E-2,-6.647487E-2,1.4662856E-3,8.1195384E-2,1.1216717E-4,-1.0831294E-3,-2.1591657E-3,-9.1065616E-5,9.465338E-4,2.0903037E-3,1.1685517E-3],"categories":[],"categories_nodes":[],"categories_segments":[],"categories_sizes":[],"default_left":[0,0,0,0,0,0,0,0,0,0,0,0,0],"id":55,"left_children":[1,3,5,7,9,11,-1,-1,-1,-1,-1,-1,-1],"loss_changes":[1.3671141E0,6.0392195E-1,3.3041054E-1,9.530544E-2,8.241041E-2,6.790328E-2,0E0,0E0,0E0,0E0,0E0,0E0,0E0],"parents":[2147483647,0,0,1,1,2,2,3,3,4,4,5,5],"right_children":[2,4,6,8,10,12,-1,-1,-1,-1,-1,-1,-1],"split_conditions":[1.4049832E0,-1.5761876E-1,5.323784E-1,1.7249656E0,1.3342398E0,-6.602088E-1,1.1216717E-4,-1.0831294E-3,-2.1591657E-3,-9.1065616E-5,9.465338E-4,2.0903037E-3,1.1685517E-3],"split_indices":[6,1,0,0,1,0,0,0,0,0,0,0,0],"split_type":[0,0,0,0,0,0,0,0,0,0,0,0,0],"sum_hessian":[7.92E2,5.15E2,2.77E2,2.44E2,2.71E2,1.85E2,9.2E1,1.91E2,5.3E1,2.36E2,3.5E1,8.8E1,9.7E1],"tree_param":{"num_deleted":"0","num_feature":"41","num_nodes":"13","size_leaf_vector":"1"}},{"base_weights":[-2.8407702E-3,-3.0033138E-2,5.9840642E-2,-1.6984858E-3,-7.0977956E-3,1.8625302E-2,1.7626346E-3,-6.218936E-4,2.1179688E-4,-0E0,1.1267876E-3],"categories":[],"categories_nodes":[],"categories_segments":[],"categories_sizes":[],"default_left":[0,0,0,0,0,0,0,0,0,0,0],"id":56,"left_children":[1,3,5,-1,7,9,-1,-1,-1,-1,-1],"loss_changes":[1.3581232E0,6.860482E-1,2.5858217E-1,0E0,1.7166734E-1,7.601092E-2,0E0,0E0,0E0,0E0,0E0],"parents":[2147483647,0,0,1,1,2,2,4,4,5,5],"right_children":[2,4,6,-1,8,10,-1,-1,-1,-1,-1],"split_conditions":[1.4049832E0,-8.2266414E-1,6.406304E-2,-1.6984858E-3,2.9173625E-1,1.5389675E0,1.7626346E-3,-6.218936E-4,2.1179688E-4,-0E0,1.1267876E-3],"split_indices":[6,1,1,0,1,5,0,0,0,0,0],"split_type":[0,0,0,0,0,0,0,0,0,0,0],"sum_hessian":[8E2,5.6E2,2.4E2,1.63E2,3.97E2,1E2,1.4E2,1.73E2,2.24E2,6.5E1,3.5E1],"tree_param":{"num_deleted":"0","num_feature":"41","num_nodes":"11","size_leaf_vector":"1"}},{"base_weights":[-4.969073E-4,-2.805935E-2,5.466148E-2,-3.9536064E-3,-1.4290365E-3,-1.3688172E-6,7.035487E-2,-5.6571E-4,1.9427776E-4,7.674641E-2,-9.272847E-5,2.4302993E-3,1.2573198E-3],"categories":[],"categories_nodes":[],"categories_segments":[],"categories_sizes":[],"default_left":[0,0,0,0,0,0,0,0,0,0,0,0,0],"id":57,"left_children":[1,3,5,7,-1,-1,9,-1,-1,11,-1,-1,-1],"loss_changes":[1.2053014E0,5.4194057E-1,2.3881996E-1,1.1773595E-1,0E0,0E0,1.12472415E-1,0E0,0E0,8.643532E-2,0E0,0E0,0E0],"parents":[2147483647,0,0,1,1,2,2,3,3,6,6,9,9],"right_children":[2,4,6,8,-1,-1,10,-1,-1,12,-1,-1,-1],"split_conditions":[1.4049832E0,5.323784E-1,-6.4292216E-1,1.9587384E-1,-1.4290365E-3,-1.3688172E-6,1.9927944E0,-5.6571E-4,1.9427776E-4,-9.583556E-1,-9.272847E-5,2.4302993E-3,1.2573198E-3],"split_indices":[6,0,1,1,0,0,2,0,0,0,0,0,0],"split_type":[0,0,0,0,0,0,0,0,0,0,0,0,0],"sum_hessian":[7.96E2,5.33E2,2.63E2,3.45E2,1.88E2,5.6E1,2.07E2,1.29E2,2.16E2,1.93E2,1.4E1,4.3E1,1.5E2],"tree_param":{"num_deleted":"0","num_feature":"41","num_nodes":"13","size_leaf_vector":"1"}},{"base_weights":[4.106924E-4,-2.8646115E-2,5.8450393E-2,-1.0269749E-2,-1.4932674E-3,3.7441362E-4,8.607322E-2,3.7589282E-4,-2.1501256E-2,2.6060247E-3,1.3565943E-3,-6.5820996E-4,2.5053968E-4],"categories":[],"categories_nodes":[],"categories_segments":[],"categories_sizes":[],"default_left":[0,0,0,0,0,0,0,0,0,0,0,0,0],"id":58,"left_children":[1,3,5,7,-1,-1,9,-1,11,-1,-1,-1,-1],"loss_changes":[1.3546742E0,4.3205205E-1,2.7621543E-1,1.25057E-1,0E0,0E0,8.96126E-2,0E0,1.1178018E-1,0E0,0E0,0E0,0E0],"parents":[2147483647,0,0,1,1,2,2,3,3,6,6,8,8],"right_children":[2,4,6,8,-1,-1,10,-1,12,-1,-1,-1,-1],"split_conditions":[1.4049832E0,8.3052516E-1,-4.9773555E-2,-6.602088E-1,-1.4932674E-3,3.7441362E-4,-9.583556E-1,3.7589282E-4,1.5389675E0,2.6060247E-3,1.3565943E-3,-6.5820996E-4,2.5053968E-4],"split_indices":[6,0,1,0,0,0,0,0,5,0,0,0,0],"split_type":[0,0,0,0,0,0,0,0,0,0,0,0,0],"sum_hessian":[8E2,5.31E2,2.69E2,3.82E2,1.49E2,1.13E2,1.56E2,1.02E2,2.8E2,4.3E1,1.13E2,2.14E2,6.6E1],"tree_param":{"num_deleted":"0","num_feature":"41","num_nodes":"13","size_leaf_vector":"1"}},{"base_weights":[8.247498E-4,-2.7697967E-2,5.477872E-2,1.3023117E-4,-5.563558E-2,1.5451581E-3,1.2292995E-2,-8.898484E-4,-2.0009135E-3,-1.6278325E-4,8.506315E-4],"categories":[],"categories_nodes":[],"categories_segments":[],"categories_sizes":[],"default_left":[0,0,0,0,0,0,0,0,0,0,0],"id":59,"left_children":[1,3,5,-1,7,-1,9,-1,-1,-1,-1],"loss_changes":[1.2499928E0,5.125351E-1,2.5111997E-1,0E0,1.1891073E-1,0E0,6.789196E-2,0E0,0E0,0E0,0E0],"parents":[2147483647,0,0,1,1,2,2,4,4,6,6],"right_children":[2,4,6,-1,8,-1,10,-1,-1,-1,-1],"split_conditions":[1.4049832E0,-6.3915215E-2,2.3423158E-1,1.3023117E-4,1.7249656E0,1.5451581E-3,1.5389675E0,-8.898484E-4,-2.0009135E-3,-1.6278325E-4,8.506315E-4],"split_indices":[6,0,0,0,0,0,5,0,0,0,0],"split_type":[0,0,0,0,0,0,0,0,0,0,0],"sum_hessian":[8.09E2,5.27E2,2.82E2,2.34E2,2.93E2,1.82E2,1E2,2.37E2,5.6E1,5.6E1,4.4E1],"tree_param":{"num_deleted":"0","num_feature":"41","num_nodes":"11","size_leaf_vector":"1"}},{"base_weights":[-4.561842E-4,-5.29503E-2,1.946672E-2,-1.3938595E-3,-1.9012488E-4,2.7297928E-3,5.374541E-2,-2.9364464E-4,5.8716163E-4,5.025964E-4,1.5193896E-3],"categories":[],"categories_nodes":[],"categories_segments":[],"categories_sizes":[],"default_left":[0,0,0,0,0,0,0,0,0,0,0],"id":60,"left_children":[1,3,5,-1,-1,7,9,-1,-1,-1,-1],"loss_changes":[8.480753E-1,1.4717251E-1,3.2295388E-1,0E0,0E0,1.8470344E-1,9.978187E-2,0E0,0E0,0E0,0E0],"parents":[2147483647,0,0,1,1,2,2,5,5,6,6],"right_children":[2,4,6,-1,-1,8,10,-1,-1,-1,-1],"split_conditions":[-6.0697377E-1,1.5389675E0,1.5389675E0,-1.3938595E-3,-1.9012488E-4,6.8716866E-1,3.3966744E-1,-2.9364464E-4,5.8716163E-4,5.025964E-4,1.5193896E-3],"split_indices":[1,5,5,0,0,1,1,0,0,0,0],"split_type":[0,0,0,0,0,0,0,0,0,0,0],"sum_hessian":[8.05E2,2.24E2,5.81E2,1.59E2,6.5E1,3.94E2,1.87E2,2.34E2,1.6E2,8.5E1,1.02E2],"tree_param":{"num_deleted":"0","num_feature":"41","num_nodes":"11","size_leaf_vector":"1"}},{"base_weights":[2.951164E-3,-2.5626823E-2,5.6514397E-2,-5.1192224E-2,1.1539763E-4,2.9319868E-4,1.5708846E-3,-4.0227287E-2,-2.0398463E-3,-1.0195872E-3,-1.5132602E-4],"categories":[],"categories_nodes":[],"categories_segments":[],"categories_sizes":[],"default_left":[0,0,0,0,0,0,0,0,0,0,0],"id":61,"left_children":[1,3,5,7,-1,-1,-1,9,-1,-1,-1],"loss_changes":[1.241009E0,4.2881525E-1,2.4223256E-1,1.3587898E-1,0E0,0E0,0E0,7.3857516E-2,0E0,0E0,0E0],"parents":[2147483647,0,0,1,1,2,2,3,3,7,7],"right_children":[2,4,6,8,-1,-1,-1,10,-1,-1,-1],"split_conditions":[1.4049832E0,1.2996845E-1,-4.9773555E-2,1.7249656E0,1.1539763E-4,2.9319868E-4,1.5708846E-3,1.5389675E0,-2.0398463E-3,-1.0195872E-3,-1.5132602E-4],"split_indices":[6,1,1,0,0,0,0,5,0,0,0],"split_type":[0,0,0,0,0,0,0,0,0,0,0],"sum_hessian":[8.07E2,5.24E2,2.83E2,2.92E2,2.32E2,1E2,1.83E2,2.43E2,4.9E1,1.79E2,6.4E1],"tree_param":{"num_deleted":"0","num_feature":"41","num_nodes":"11","size_leaf_vector":"1"}},{"base_weights":[-1.0964475E-3,-5.2212365E-2,1.960462E-2,-1.7326027E-3,-3.1524897E-2,3.316726E-3,1.1338368E-3,-9.426221E-4,-0E0,6.875709E-4,-3.1515886E-4],"categories":[],"categories_nodes":[],"categories_segments":[],"categories_sizes":[],"default_left":[0,0,0,0,0,0,0,0,0,0,0],"id":62,"left_children":[1,3,5,-1,7,9,-1,-1,-1,-1,-1],"loss_changes":[8.4830755E-1,1.4268172E-1,3.2869542E-1,0E0,8.085324E-2,2.3660094E-1,0E0,0E0,0E0,0E0,0E0],"parents":[2147483647,0,0,1,1,2,2,4,4,5,5],"right_children":[2,4,6,-1,8,10,-1,-1,-1,-1,-1],"split_conditions":[-5.530512E-1,-1.2780106E0,1.5389675E0,-1.7326027E-3,1.5389675E0,-6.602088E-1,1.1338368E-3,-9.426221E-4,-0E0,6.875709E-4,-3.1515886E-4],"split_indices":[1,1,5,0,5,0,0,0,0,0,0],"split_type":[0,0,0,0,0,0,0,0,0,0,0],"sum_hessian":[7.96E2,2.32E2,5.64E2,8.4E1,1.48E2,3.95E2,1.69E2,1.03E2,4.5E1,1.54E2,2.41E2],"tree_param":{"num_deleted":"0","num_feature":"41","num_nodes":"11","size_leaf_vector":"1"}},{"base_weights":[7.3067384E-4,-2.4576543E-2,5.0605297E-2,-5.7920624E-2,1.4804743E-3,1.3395634E-3,1.6761585E-5,-7.651503E-4,-1.5548615E-3,-1.8207246E-4,6.9786806E-4],"categories":[],"categories_nodes":[],"categories_segments":[],"categories_sizes":[],"default_left":[0,0,0,0,0,0,0,0,0,0,0],"id":63,"left_children":[1,3,5,7,9,-1,-1,-1,-1,-1,-1],"loss_changes":[9.8931867E-1,4.5784226E-1,2.0181596E-1,6.760639E-2,1.0551444E-1,0E0,0E0,0E0,0E0,0E0,0E0],"parents":[2147483647,0,0,1,1,2,2,3,3,4,4],"right_children":[2,4,6,8,10,-1,-1,-1,-1,-1,-1],"split_conditions":[1.4049832E0,-1.3365316E-1,5.323784E-1,1.128672E0,1.0047128E0,1.3395634E-3,1.6761585E-5,-7.651503E-4,-1.5548615E-3,-1.8207246E-4,6.9786806E-4],"split_indices":[6,1,0,0,1,0,0,0,0,0,0],"split_type":[0,0,0,0,0,0,0,0,0,0,0],"sum_hessian":[7.8E2,5.15E2,2.65E2,2.29E2,2.86E2,1.97E2,6.8E1,1.19E2,1.1E2,2.13E2,7.3E1],"tree_param":{"num_deleted":"0","num_feature":"41","num_nodes":"11","size_leaf_vector":"1"}},{"base_weights":[-2.248575E-3,-2.6965471E-2,5.1886424E-2,-6.7781275E-3,-7.4800044E-2,3.9176666E-4,1.4834494E-3,-1.757197E-2,5.317447E-4,-2.564754E-3,-1.258211E-3,-8.4534806E-4,-3.6020552E-5],"categories":[],"categories_nodes":[],"categories_segments":[],"categories_sizes":[],"default_left":[0,0,0,0,0,0,0,0,0,0,0,0,0],"id":64,"left_children":[1,3,5,7,9,-1,-1,11,-1,-1,-1,-1,-1],"loss_changes":[1.0725781E0,5.2094555E-1,1.618014E-1,1.3968086E-1,6.833714E-2,0E0,0E0,1.0879055E-1,0E0,0E0,0E0,0E0,0E0],"parents":[2147483647,0,0,1,1,2,2,3,3,4,4,7,7],"right_children":[2,4,6,8,10,-1,-1,12,-1,-1,-1,-1,-1],"split_conditions":[1.4049832E0,8.3052516E-1,7.604585E-2,1.5389675E0,-1.793271E0,3.9176666E-4,1.4834494E-3,1.3595985E-1,5.317447E-4,-2.564754E-3,-1.258211E-3,-8.4534806E-4,-3.6020552E-5],"split_indices":[6,0,1,5,1,0,0,1,0,0,0,0,0],"split_type":[0,0,0,0,0,0,0,0,0,0,0,0,0],"sum_hessian":[8.05E2,5.55E2,2.5E2,3.93E2,1.62E2,1.05E2,1.45E2,3.01E2,9.2E1,2.7E1,1.35E2,1.13E2,1.88E2],"tree_param":{"num_deleted":"0","num_feature":"41","num_nodes":"13","size_leaf_vector":"1"}},{"base_weights":[-1.8041405E-3,-3.5994887E-2,2.7928233E-2,-1.2492329E-3,-1.7093977E-2,1.1743703E-2,1.2883701E-3,-5.938599E-4,2.65207E-4,5.5090105E-4,-1.9722308E-4],"categories":[],"categories_nodes":[],"categories_segments":[],"categories_sizes":[],"default_left":[0,0,0,0,0,0,0,0,0,0,0],"id":65,"left_children":[1,3,5,-1,7,9,-1,-1,-1,-1,-1],"loss_changes":[8.4322643E-1,1.7861164E-1,2.4499807E-1,0E0,9.0514615E-2,1.0795687E-1,0E0,0E0,0E0,0E0,0E0],"parents":[2147483647,0,0,1,1,2,2,4,4,5,5],"right_children":[2,4,6,-1,8,10,-1,-1,-1,-1,-1],"split_conditions":[-3.7790757E-2,-9.964148E-1,1.5389675E0,-1.2492329E-3,1.5389675E0,-3.62062E-1,1.2883701E-3,-5.938599E-4,2.65207E-4,5.5090105E-4,-1.9722308E-4],"split_indices":[1,1,5,0,5,0,0,0,0,0,0],"split_type":[0,0,0,0,0,0,0,0,0,0,0],"sum_hessian":[8.28E2,3.88E2,4.4E2,1.58E2,2.3E2,3.08E2,1.32E2,1.67E2,6.3E1,1.83E2,1.25E2],"tree_param":{"num_deleted":"0","num_feature":"41","num_nodes":"11","size_leaf_vector":"1"}},{"base_weights":[-6.539075E-5,-2.3522507E-2,4.9851246E-2,3.6518447E-4,-1.0690815E-3,6.322092E-2,6.939391E-6,5.8416504E-4,-8.31111E-3,8.8227243E-4,1.7690052E-3,-3.6953232E-4,4.77615E-4],"categories":[],"categories_nodes":[],"categories_segments":[],"categories_sizes":[],"default_left":[0,0,0,0,0,0,0,0,0,0,0,0,0],"id":66,"left_children":[1,3,5,7,-1,9,-1,-1,11,-1,-1,-1,-1],"loss_changes":[9.5298177E-1,4.0806866E-1,1.5974432E-1,8.051516E-2,0E0,7.231063E-2,0E0,0E0,7.424165E-2,0E0,0E0,0E0,0E0],"parents":[2147483647,0,0,1,1,2,2,3,3,5,5,8,8],"right_children":[2,4,6,8,-1,10,-1,-1,12,-1,-1,-1,-1],"split_conditions":[1.4049832E0,2.3423158E-1,8.3052516E-1,-9.583556E-1,-1.0690815E-3,1.5389675E0,6.939391E-6,5.8416504E-4,1.5389675E0,8.8227243E-4,1.7690052E-3,-3.6953232E-4,4.77615E-4],"split_indices":[6,0,0,0,0,5,0,0,5,0,0,0,0],"split_type":[0,0,0,0,0,0,0,0,0,0,0,0,0],"sum_hessian":[8.18E2,5.59E2,2.59E2,3.07E2,2.52E2,2.01E2,5.8E1,7.6E1,2.31E2,1.18E2,8.3E1,1.8E2,5.1E1],"tree_param":{"num_deleted":"0","num_feature":"41","num_nodes":"13","size_leaf_vector":"1"}},{"base_weights":[-1.9197303E-3,-3.335846E-2,2.549973E-2,-4.9595993E-2,1.16922434E-4,6.641033E-3,1.3517124E-3,-6.252386E-4,-1.5192871E-3,5.66177E-4,-1.7830018E-4],"categories":[],"categories_nodes":[],"categories_segments":[],"categories_sizes":[],"default_left":[0,0,0,0,0,0,0,0,0,0,0],"id":67,"left_children":[1,3,5,7,-1,9,-1,-1,-1,-1,-1],"loss_changes":[6.988479E-1,2.4988842E-1,3.258289E-1,1.1150354E-1,0E0,1.0398596E-1,0E0,0E0,0E0,0E0,0E0],"parents":[2147483647,0,0,1,1,2,2,3,3,5,5],"right_children":[2,4,6,8,-1,10,-1,-1,-1,-1,-1],"split_conditions":[-3.7790757E-2,1.5389675E0,1.5389675E0,1.128672E0,1.16922434E-4,-6.602088E-1,1.3517124E-3,-6.252386E-4,-1.5192871E-3,5.66177E-4,-1.7830018E-4],"split_indices":[1,5,5,0,0,0,0,0,0,0,0],"split_type":[0,0,0,0,0,0,0,0,0,0,0],"sum_hessian":[8.09E2,3.8E2,4.29E2,2.72E2,1.08E2,2.99E2,1.3E2,1.64E2,1.08E2,1.3E2,1.69E2],"tree_param":{"num_deleted":"0","num_feature":"41","num_nodes":"11","size_leaf_vector":"1"}},{"base_weights":[-0E0,-2.3481065E-2,4.7565084E-2,-5.9447577E-3,-1.3306084E-3,8.4708736E-5,1.3363254E-3,6.040072E-4,-1.4266577E-2,-4.7068193E-4,2.5166842E-4],"categories":[],"categories_nodes":[],"categories_segments":[],"categories_sizes":[],"default_left":[0,0,0,0,0,0,0,0,0,0,0],"id":68,"left_children":[1,3,5,7,-1,-1,-1,-1,9,-1,-1],"loss_changes":[9.029956E-1,3.9165592E-1,2.0908076E-1,1.12709984E-1,0E0,0E0,0E0,0E0,8.0442466E-2,0E0,0E0],"parents":[2147483647,0,0,1,1,2,2,3,3,8,8],"right_children":[2,4,6,8,-1,-1,-1,-1,10,-1,-1],"split_conditions":[1.4049832E0,8.3052516E-1,-3.1938657E-1,-9.583556E-1,-1.3306084E-3,8.4708736E-5,1.3363254E-3,6.040072E-4,1.5389675E0,-4.7068193E-4,2.5166842E-4],"split_indices":[6,0,1,0,0,0,0,0,5,0,0],"split_type":[0,0,0,0,0,0,0,0,0,0,0],"sum_hessian":[8.06E2,5.38E2,2.68E2,3.85E2,1.53E2,8.5E1,1.83E2,6.8E1,3.17E2,2.41E2,7.6E1],"tree_param":{"num_deleted":"0","num_feature":"41","num_nodes":"11","size_leaf_vector":"1"}},{"base_weights":[3.003325E-4,-2.3603838E-2,4.7726173E-2,-1.2461013E-3,-5.8689765E-3,1.602218E-2,1.4550869E-3,-4.333688E-4,2.772736E-4,-4.045422E-5,9.3468436E-4],"categories":[],"categories_nodes":[],"categories_segments":[],"categories_sizes":[],"default_left":[0,0,0,0,0,0,0,0,0,0,0],"id":69,"left_children":[1,3,5,-1,7,9,-1,-1,-1,-1,-1],"loss_changes":[9.091319E-1,3.4877735E-1,1.9675541E-1,0E0,1.1478279E-1,7.561174E-2,0E0,0E0,0E0,0E0,0E0],"parents":[2147483647,0,0,1,1,2,2,4,4,5,5],"right_children":[2,4,6,-1,8,10,-1,-1,-1,-1,-1],"split_conditions":[1.4049832E0,-5.710254E-1,-4.9773555E-2,-1.2461013E-3,5.254009E-1,1.5389675E0,1.4550869E-3,-4.333688E-4,2.772736E-4,-4.045422E-5,9.3468436E-4],"split_indices":[6,1,1,0,1,5,0,0,0,0,0],"split_type":[0,0,0,0,0,0,0,0,0,0,0],"sum_hessian":[7.98E2,5.28E2,2.7E2,1.63E2,3.65E2,1.22E2,1.48E2,2.08E2,1.57E2,7.3E1,4.9E1],"tree_param":{"num_deleted":"0","num_feature":"41","num_nodes":"11","size_leaf_vector":"1"}},{"base_weights":[1.7430849E-3,3.1407855E-2,-2.3699729E-2,1.0923684E-3,3.9700282E-4,-8.937256E-5,-8.6302136E-4],"categories":[],"categories_nodes":[],"categories_segments":[],"categories_sizes":[],"default_left":[0,0,0,0,0,0,0],"id":70,"left_children":[1,3,5,-1,-1,-1,-1],"loss_changes":[6.1882305E-1,8.840948E-2,1.5411334E-1,0E0,0E0,0E0,0E0],"parents":[2147483647,0,0,1,1,2,2],"right_children":[2,4,6,-1,-1,-1,-1],"split_conditions":[-6.3915215E-2,-9.583556E-1,8.3052516E-1,1.0923684E-3,3.9700282E-4,-8.937256E-5,-8.6302136E-4],"split_indices":[0,0,0,0,0,0,0],"split_type":[0,0,0,0,0,0,0],"sum_hessian":[8.18E2,3.81E2,4.37E2,1.22E2,2.59E2,2.24E2,2.13E2],"tree_param":{"num_deleted":"0","num_feature":"41","num_nodes":"7","size_leaf_vector":"1"}},{"base_weights":[1.8109776E-3,-2.2777764E-2,4.615728E-2,-4.9898904E-2,-7.864288E-6,5.997238E-2,-0E0,-7.8914047E-4,-1.7657789E-3,1.7077741E-3,8.770926E-4],"categories":[],"categories_nodes":[],"categories_segments":[],"categories_sizes":[],"default_left":[0,0,0,0,0,0,0,0,0,0,0],"id":71,"left_children":[1,3,5,7,-1,9,-1,-1,-1,-1,-1],"loss_changes":[9.2245466E-1,3.1799608E-1,1.961006E-1,7.300365E-2,0E0,7.198906E-2,0E0,0E0,0E0,0E0,0E0],"parents":[2147483647,0,0,1,1,2,2,3,3,5,5],"right_children":[2,4,6,8,-1,10,-1,-1,-1,-1,-1],"split_conditions":[1.4049832E0,-7.3739156E-2,8.3052516E-1,1.7249656E0,-7.864288E-6,-6.602088E-1,-0E0,-7.8914047E-4,-1.7657789E-3,1.7077741E-3,8.770926E-4],"split_indices":[6,1,0,0,0,0,0,0,0,0,0],"split_type":[0,0,0,0,0,0,0,0,0,0,0],"sum_hessian":[8.42E2,5.39E2,3.03E2,2.4E2,2.99E2,2.34E2,6.9E1,1.92E2,4.8E1,8.7E1,1.47E2],"tree_param":{"num_deleted":"0","num_feature":"41","num_nodes":"11","size_leaf_vector":"1"}},{"base_weights":[-4.09482E-3,-2.669658E-2,4.234661E-2,-1.2294928E-3,-1.8313623E-4,-0E0,1.2032419E-3],"categories":[],"categories_nodes":[],"categories_segments":[],"categories_sizes":[],"default_left":[0,0,0,0,0,0,0],"id":72,"left_children":[1,3,5,-1,-1,-1,-1],"loss_changes":[8.169296E-1,3.0835342E-1,1.809288E-1,0E0,0E0,0E0,0E0],"parents":[2147483647,0,0,1,1,2,2],"right_children":[2,4,6,-1,-1,-1,-1],"split_conditions":[1.4049832E0,-5.530512E-1,-3.5533497E-1,-1.2294928E-3,-1.8313623E-4,-0E0,1.2032419E-3],"split_indices":[6,1,1,0,0,0,0],"split_type":[0,0,0,0,0,0,0],"sum_hessian":[7.81E2,5.28E2,2.53E2,1.74E2,3.54E2,7.7E1,1.76E2],"tree_param":{"num_deleted":"0","num_feature":"41","num_nodes":"7","size_leaf_vector":"1"}},{"base_weights":[-2.1972682E-3,-2.2471592E-2,3.978194E-2,4.3225078E-5,-4.3440122E-2,1.2062754E-3,9.695287E-5,-1.0594627E-3,-2.2756535E-4],"categories":[],"categories_nodes":[],"categories_segments":[],"categories_sizes":[],"default_left":[0,0,0,0,0,0,0,0,0],"id":73,"left_children":[1,3,5,-1,7,-1,-1,-1,-1],"loss_changes":[6.683547E-1,2.8388476E-1,1.6926008E-1,0E0,7.685363E-2,0E0,0E0,0E0,0E0],"parents":[2147483647,0,0,1,1,2,2,4,4],"right_children":[2,4,6,-1,8,-1,-1,-1,-1],"split_conditions":[1.4049832E0,-6.3915215E-2,2.3423158E-1,4.3225078E-5,1.5389675E0,1.2062754E-3,9.695287E-5,-1.0594627E-3,-2.2756535E-4],"split_indices":[6,0,0,0,5,0,0,0,0],"split_type":[0,0,0,0,0,0,0,0,0],"sum_hessian":[7.89E2,5.35E2,2.54E2,2.42E2,2.93E2,1.57E2,9.7E1,2.22E2,7.1E1],"tree_param":{"num_deleted":"0","num_feature":"41","num_nodes":"9","size_leaf_vector":"1"}},{"base_weights":[1.1074302E-4,3.1262934E-2,-2.744018E-2,1.5864186E-2,1.2968559E-3,-4.1743845E-2,1.7695692E-4,6.2750437E-4,-3.9651633E-5,-5.8038055E-4,-1.516922E-3],"categories":[],"categories_nodes":[],"categories_segments":[],"categories_sizes":[],"default_left":[0,0,0,0,0,0,0,0,0,0,0],"id":74,"left_children":[1,3,5,7,-1,9,-1,-1,-1,-1,-1],"loss_changes":[6.8991345E-1,1.8094954E-1,2.2551677E-1,7.8179926E-2,0E0,1.1397308E-1,0E0,0E0,0E0,0E0,0E0],"parents":[2147483647,0,0,1,1,2,2,3,3,5,5],"right_children":[2,4,6,8,-1,10,-1,-1,-1,-1,-1],"split_conditions":[-6.3915215E-2,1.5389675E0,1.5389675E0,-6.602088E-1,1.2968559E-3,1.4268187E0,1.7695692E-4,6.2750437E-4,-3.9651633E-5,-5.8038055E-4,-1.516922E-3],"split_indices":[0,5,5,0,0,0,0,0,0,0,0],"split_type":[0,0,0,0,0,0,0,0,0,0,0],"sum_hessian":[8.03E2,3.8E2,4.23E2,2.64E2,1.16E2,3.07E2,1.16E2,1.47E2,1.17E2,2.27E2,8E1],"tree_param":{"num_deleted":"0","num_feature":"41","num_nodes":"11","size_leaf_vector":"1"}},{"base_weights":[-9.413214E-4,-1.9997606E-2,3.8694464E-2,5.882923E-4,-4.9686387E-2,1.1070514E-3,-2.4663834E-5,-1.3107805E-4,5.55748E-4,-1.2122772E-3,-2.708743E-4],"categories":[],"categories_nodes":[],"categories_segments":[],"categories_sizes":[],"default_left":[0,0,0,0,0,0,0,0,0,0,0],"id":75,"left_children":[1,3,5,7,9,-1,-1,-1,-1,-1,-1],"loss_changes":[6.2499803E-1,3.5434395E-1,1.863876E-1,6.7769125E-2,7.828426E-2,0E0,0E0,0E0,0E0,0E0,0E0],"parents":[2147483647,0,0,1,1,2,2,3,3,4,4],"right_children":[2,4,6,8,10,-1,-1,-1,-1,-1,-1],"split_conditions":[1.4049832E0,2.3423158E-1,5.323784E-1,1.5389675E0,1.5389675E0,1.1070514E-3,-2.4663834E-5,-1.3107805E-4,5.55748E-4,-1.2122772E-3,-2.708743E-4],"split_indices":[6,0,0,5,5,0,0,0,0,0,0],"split_type":[0,0,0,0,0,0,0,0,0,0,0],"sum_hessian":[8.32E2,5.65E2,2.67E2,3.3E2,2.35E2,1.92E2,7.5E1,2.56E2,7.4E1,1.77E2,5.8E1],"tree_param":{"num_deleted":"0","num_feature":"41","num_nodes":"11","size_leaf_vector":"1"}},{"base_weights":[-0E0,-2.1465663E-2,4.410322E-2,-1.282276E-3,-4.659794E-3,1.1354123E-3,-2.0195424E-5,-2.4012341E-4,6.1874586E-4],"categories":[],"categories_nodes":[],"categories_segments":[],"categories_sizes":[],"default_left":[0,0,0,0,0,0,0,0,0],"id":76,"left_children":[1,3,5,-1,7,-1,-1,-1,-1],"loss_changes":[7.492963E-1,3.711682E-1,1.5640771E-1,0E0,9.751457E-2,0E0,0E0,0E0,0E0],"parents":[2147483647,0,0,1,1,2,2,4,4],"right_children":[2,4,6,-1,8,-1,-1,-1,-1],"split_conditions":[1.4049832E0,-7.8072435E-1,8.3052516E-1,-1.282276E-3,1.1365237E0,1.1354123E-3,-2.0195424E-5,-2.4012341E-4,6.1874586E-4],"split_indices":[6,1,0,0,1,0,0,0,0],"split_type":[0,0,0,0,0,0,0,0,0],"sum_hessian":[7.95E2,5.37E2,2.58E2,1.49E2,3.88E2,2.05E2,5.3E1,3.26E2,6.2E1],"tree_param":{"num_deleted":"0","num_feature":"41","num_nodes":"9","size_leaf_vector":"1"}},{"base_weights":[1.7209248E-4,-2.1128977E-2,4.6118114E-2,-1.3112752E-3,-5.0396645E-3,-0E0,1.1288141E-3,-2.6591177E-4,7.013752E-4],"categories":[],"categories_nodes":[],"categories_segments":[],"categories_sizes":[],"default_left":[0,0,0,0,0,0,0,0,0],"id":77,"left_children":[1,3,5,-1,7,-1,-1,-1,-1],"loss_changes":[7.562561E-1,3.5918748E-1,1.11478746E-1,0E0,1.2322486E-1,0E0,0E0,0E0,0E0],"parents":[2147483647,0,0,1,1,2,2,4,4],"right_children":[2,4,6,-1,8,-1,-1,-1,-1],"split_conditions":[1.4049832E0,-7.8072435E-1,-6.4292216E-1,-1.3112752E-3,1.1305323E0,-0E0,1.1288141E-3,-2.6591177E-4,7.013752E-4],"split_indices":[6,1,1,0,1,0,0,0,0],"split_type":[0,0,0,0,0,0,0,0,0],"sum_hessian":[7.68E2,5.22E2,2.46E2,1.36E2,3.86E2,4.6E1,2E2,3.24E2,6.2E1],"tree_param":{"num_deleted":"0","num_feature":"41","num_nodes":"9","size_leaf_vector":"1"}},{"base_weights":[-2.6444736E-4,-2.0393211E-2,4.1895393E-2,-6.002066E-2,-4.359761E-3,1.3762121E-3,2.1740869E-2,-2.1406212E-3,-9.351128E-4,-1.8343327E-4,1.06394E-3,7.721748E-6,9.0934354E-4],"categories":[],"categories_nodes":[],"categories_segments":[],"categories_sizes":[],"default_left":[0,0,0,0,0,0,0,0,0,0,0,0,0],"id":78,"left_children":[1,3,5,7,9,-1,11,-1,-1,-1,-1,-1,-1],"loss_changes":[6.9448435E-1,3.4397304E-1,1.2533891E-1,7.049531E-2,1.0266638E-1,0E0,6.933644E-2,0E0,0E0,0E0,0E0,0E0,0E0],"parents":[2147483647,0,0,1,1,2,2,3,3,4,4,6,6],"right_children":[2,4,6,8,10,-1,12,-1,-1,-1,-1,-1,-1],"split_conditions":[1.4049832E0,-7.8072435E-1,-3.62062E-1,-1.793271E0,1.4840249E0,1.3762121E-3,1.5389675E0,-2.1406212E-3,-9.351128E-4,-1.8343327E-4,1.06394E-3,7.721748E-6,9.0934354E-4],"split_indices":[6,1,0,1,1,0,5,0,0,0,0,0,0],"split_type":[0,0,0,0,0,0,0,0,0,0,0,0,0],"sum_hessian":[8.23E2,5.6E2,2.63E2,1.58E2,4.02E2,1.09E2,1.54E2,3.2E1,1.26E2,3.74E2,2.8E1,8.5E1,6.9E1],"tree_param":{"num_deleted":"0","num_feature":"41","num_nodes":"13","size_leaf_vector":"1"}},{"base_weights":[-1.9701396E-4,-2.2392163E-2,4.1656163E-2,-4.5669265E-2,-1.6480766E-7,3.7579765E-4,1.4286495E-3,-1.1327352E-3,-2.4208993E-4],"categories":[],"categories_nodes":[],"categories_segments":[],"categories_sizes":[],"default_left":[0,0,0,0,0,0,0,0,0],"id":79,"left_children":[1,3,5,7,-1,-1,-1,-1,-1],"loss_changes":[7.1454746E-1,2.5629354E-1,1.6332552E-1,7.674569E-2,0E0,0E0,0E0,0E0,0E0],"parents":[2147483647,0,0,1,1,2,2,3,3],"right_children":[2,4,6,8,-1,-1,-1,-1,-1],"split_conditions":[1.4049832E0,-1.5162736E-1,1.5389675E0,1.5389675E0,-1.6480766E-7,3.7579765E-4,1.4286495E-3,-1.1327352E-3,-2.4208993E-4],"split_indices":[6,1,5,5,0,0,0,0,0],"split_type":[0,0,0,0,0,0,0,0,0],"sum_hessian":[7.73E2,5.08E2,2.65E2,2.45E2,2.63E2,